
#ifndef MODEL_H
#define MODEL_H
#include <stdint.h>

#define FIXED_POINT 9
#define MODEL_INPUT_SAMPLES 128
#define MODEL_INPUT_CHANNELS 9
#define MODEL_INPUT_TOTAL 1152 
#define MODEL_OUTPUT_SAMPLES 6

typedef int16_t number_t;
typedef int32_t long_number_t;

number_t clamp_to_number_t(long_number_t value) {
    if (value > 32767) return 32767;
    if (value < -32768) return -32768;
    return (number_t)value;
}

number_t activation_relu(number_t value) {
    if (value < 0) return 0;
    return value;
}

// Layer 0 Weights ((16, 1152))
const int16_t weights_0[] = {
246, 214, 39, -27, -54, 36, -7, 21, 17, -53, -62, -88, -110, -3, 104, 116, 
268, 270, 298, 247, 136, 55, -2, -34, 0, -35, -19, -40, -27, -91, -63, -77, 
-29, -36, -36, -49, -26, 7, -5, 51, 48, 107, 200, 193, 152, 150, 57, 61, 
-29, -18, -30, 5, -31, 54, 56, 49, -53, -41, -42, -14, -85, -114, -43, -107, 
-108, -114, -74, -19, 66, 113, 151, 147, 108, 164, 145, 135, 45, -19, -6, -8, 
-92, -107, -74, -71, -114, -65, 16, 16, -29, -42, -73, -103, -38, -15, 8, 83, 
163, 161, 90, 99, 77, -21, -90, -54, -82, -20, -34, -43, -10, -42, -38, -102, 
-78, -133, -72, 23, -19, -20, -57, -82, -86, 29, 23, 115, 83, 119, 67, 80, 
138, 213, 332, 376, 324, 236, 207, 86, 27, 150, 176, 113, 36, 3, -38, -17, 
67, 232, 238, 153, 140, 1, -78, -42, -107, -213, -159, -154, -114, -16, -60, -15, 
-65, -14, 44, 131, 71, 37, 37, -2, -105, -246, -230, -234, -201, 14, 168, 219, 
242, 218, 207, 171, 127, 68, 18, 32, 57, 53, -53, -23, 5, 121, 109, 139, 
124, 29, -37, -95, -74, -28, 11, 3, 18, -32, -127, -321, -288, -221, -144, 29, 
15, 66, -47, -89, -37, -40, 33, 110, 148, 106, 42, 28, -34, -72, -152, -186, 
-80, 8, 52, 6, -70, -53, 60, 166, 204, 143, 106, 67, 64, 87, 42, 124, 
112, 106, 87, 88, 53, 10, 72, 40, 74, -49, -106, -122, -68, 3, 6, 58, 
-29, 46, 125, 153, 123, 134, 98, 5, 20, 1, -34, -21, -50, -72, -50, -11, 
97, 86, -3, 21, 84, 128, 60, 40, 11, 96, 93, 155, 184, 174, 222, 167, 
74, 64, 165, 152, 105, 136, -12, -149, -143, -136, -112, -75, 66, 105, 141, 33, 
-29, -35, -4, -11, 64, 7, -85, -105, -64, 30, 0, -147, -154, -15, 55, 170, 
172, 139, 123, -35, -198, -182, -90, 13, 23, 41, 23, -12, 19, -60, -29, -51, 
-29, -36, 91, 191, 171, 88, 26, 115, 129, 128, 95, 73, -10, -61, -91, -138, 
-118, -57, 78, 118, 52, -53, 0, -63, -86, -66, -134, -27, 24, -4, 13, -29, 
46, 50, 59, 37, 1, 1, -31, -36, -32, -68, -5, 69, 115, 0, -81, -45, 
-65, 11, -32, -87, -88, 0, 63, 65, 74, 103, 111, 175, 169, 103, 140, 94, 
30, -11, -98, -31, 16, 5, 55, 48, 86, 46, 23, 15, -38, -77, -78, -82, 
-31, 15, 73, 47, -27, -122, -61, -73, -76, -31, 28, 64, -1, 49, 53, -21, 
-68, -105, -124, -147, -124, -78, -124, -104, -75, -90, -78, -8, -76, -80, -87, -125, 
-98, -49, -61, -4, -3, 7, -6, 25, 45, 131, 115, 179, 155, 142, 111, 83, 
-7, -40, -34, -41, 1, 29, 63, 120, 76, -7, -21, -99, -48, -61, -1, 47, 
29, 74, 11, -20, -9, -69, -54, -89, -60, -25, -68, -83, -76, -112, -123, -118, 
-197, -207, -210, -178, -119, -117, -18, -70, -63, -47, -40, 0, -13, -31, -5, -34, 
233, 206, 196, 172, 97, 123, 91, 130, 88, 0, -85, -250, -195, -72, 142, 170, 
128, 39, 103, 100, 94, 108, 205, 155, 142, 148, 176, 159, 77, -16, -117, -86, 
11, 106, 71, 100, 70, -52, -181, -141, -120, -118, -71, -11, -31, -55, -103, -154, 
-120, -73, -20, -99, -160, -8, -48, -24, 28, 39, 91, 183, 280, 309, 317, 228, 
110, -31, -188, -201, -183, -78, 123, 88, -12, -37, -45, 61, 99, 78, -8, -80, 
-70, -31, 6, 143, 98, 42, -20, -78, -160, -98, -21, -53, -110, -98, 15, 104, 
232, 264, -23, -77, -78, -104, -86, -118, -134, -170, -127, -39, -44, -81, -130, -90, 
18, 45, 54, 42, 114, 156, 78, 51, 2, 75, 207, 252, 169, 175, 85, -1, 
-31, -60, -42, 18, 159, 25, 8, -50, -89, -161, -149, -77, 26, 13, -57, -163, 
-185, -133, -21, -14, 94, 144, 156, 228, 247, 184, 66, -11, -47, -127, -138, -114, 
-109, -74, -90, -106, -32, 106, 214, 168, 152, 167, 12, -156, -264, -223, -217, -218, 
-229, -213, -159, -77, 55, 97, 82, 57, 45, 22, -40, 3, 6, -56, -100, -128, 
-89, -40, -36, -77, -4, -28, 5, 48, 106, 129, 115, 10, -29, -55, -83, -85, 
-158, -189, -242, -247, -179, -122, -46, 20, 61, 69, 170, 218, 305, 234, 140, 65, 
-18, -203, -233, -170, -212, -186, -229, -200, -59, 96, 101, 130, 133, 102, 133, 60, 
4, -115, -99, -43, -38, -12, -30, -4, 61, 7, 14, -38, -51, -25, -23, 38, 
-167, -153, -192, -233, -253, -191, -222, -218, -194, -223, -193, -196, -192, -176, -181, -140, 
-170, -116, -195, -185, -190, -197, -259, -226, -251, -239, -234, -207, -238, -241, -248, -195, 
-237, -173, -171, -206, -216, -191, -199, -225, -156, -176, -194, -188, -171, -156, -231, -246, 
-223, -223, -237, -234, -236, -191, -190, -174, -184, -191, -220, -171, -252, -188, -201, -219, 
-231, -224, -238, -216, -203, -172, -128, -186, -149, -179, -176, -214, -225, -186, -242, -191, 
-262, -273, -227, -232, -249, -208, -224, -185, -186, -193, -199, -188, -197, -206, -175, -155, 
-179, -134, -193, -219, -217, -249, -279, -251, -243, -263, -217, -252, -198, -198, -257, -190, 
-230, -245, -212, -202, -199, -219, -225, -222, -172, -172, -173, -146, -181, -157, -150, -213, 
-35, 38, 31, 91, 68, 10, 11, -67, -74, -13, 32, -21, -43, -52, -85, -44, 
38, 27, 39, 38, -26, -94, -102, -89, -67, -81, -93, -128, -107, -48, -77, -35, 
-4, -49, 5, 29, -14, 37, -14, 1, -92, -76, -137, -133, -108, -11, 55, 79, 
80, 103, 56, 88, 11, -3, -7, -10, 55, -3, -19, -20, -27, -4, 70, 95, 
66, -9, -36, -39, -41, -20, -1, 42, 9, -44, -100, -146, -153, -144, -35, -42, 
29, -4, 14, 5, -34, 11, 32, 64, 40, 70, 23, 24, -47, -41, -66, -65, 
-17, -13, -11, -42, -17, -45, -8, 84, 67, 41, 8, 51, 14, 34, 21, 85, 
40, 104, 28, 49, 4, 1, 18, 12, 6, -5, -73, -86, -80, 11, -18, -4, 
-159, -118, -64, -19, -88, -39, -113, -120, -100, -156, -115, -134, -111, -144, -154, -105, 
-88, -138, -165, -129, -114, -95, -132, -166, -158, -93, -105, -72, -53, -36, -62, -65, 
-85, -63, -107, -118, -77, -113, -126, -170, -142, -146, -173, -124, -91, -134, -78, -119, 
-124, -133, -135, -93, -89, -140, -152, -154, -140, -115, -146, -173, -133, -79, -116, -66, 
-4, -54, -36, -149, -215, -223, -150, -104, -132, -99, -111, -117, -138, -151, -106, -111, 
-146, -104, -107, -113, -77, -116, -71, -94, -56, -75, -72, -63, -168, -132, -149, -184, 
-165, -128, -115, -117, -117, -131, -119, -143, -132, -176, -159, -150, -125, -127, -90, -102, 
-129, -80, -46, -110, -102, -72, -115, -108, -150, -139, -87, -69, -82, -74, -110, -115, 
-466, -472, -404, -257, -239, -152, -202, -154, 76, 88, 68, -40, -292, -207, 46, -10, 
-60, -158, -448, -554, -288, -271, -271, -201, -247, -169, 57, 128, 215, 212, 214, 474, 
474, 304, 381, 269, 50, -32, -172, -213, -219, -97, 120, 192, 307, 293, 258, 304, 
95, -82, -129, -341, -342, -416, -372, -319, -274, -174, -55, 162, 285, 309, 101, -84, 
-13, 39, 187, 140, -140, 98, 129, -307, -411, -208, -86, -205, -392, -404, -511, -521, 
-682, -937, -922, -896, -635, -624, -670, -339, -272, -296, 112, 87, -76, 27, 136, 258, 
232, 306, 437, 184, -56, -106, -3, 235, 322, 523, 715, 566, 277, 155, 106, 26, 
-127, -247, -200, -73, -46, -21, -91, -187, -214, -139, 3, 374, 549, 407, 29, -149, 
-376, -431, -238, -231, -231, -25, 151, 241, 30, -298, -103, 289, 111, 195, 304, 1, 
-47, -178, -241, -38, -296, -301, -64, 41, 223, 403, 364, 132, -18, -136, 86, 226, 
80, 50, -40, -334, -356, -264, -277, -275, -277, -378, -271, -8, 58, 109, 320, 209, 
-178, -367, -462, -467, -355, -411, -601, -207, -61, 113, 278, 337, 502, 492, 405, 181, 
-196, -588, -947, -987, -825, -836, -788, -780, -754, -104, 221, -141, -340, -271, -287, -226, 
-371, -674, -762, -520, -293, -221, -52, 112, 453, 767, 575, 591, 643, 525, 538, 428, 
443, 219, -170, -121, -52, 131, 350, 120, 18, -153, -144, -21, 9, -52, -64, -228, 
-427, -175, 123, -72, -90, 32, 2, 200, 204, 320, 461, 332, 311, 211, 195, 160, 
198, 559, 499, 398, 319, 88, 143, 278, 207, 313, 583, 755, 232, -127, 302, 407, 
152, 36, -31, 169, 330, 409, 411, 9, -178, -146, -61, -118, -161, 18, -163, -625, 
-713, -774, -743, -733, -735, -573, -562, -643, -649, -569, -430, -304, -287, -85, -73, -114, 
-45, -220, -676, -508, -126, -161, 10, 240, 357, 591, 611, 484, 583, 651, 754, 625, 
465, 483, 210, -64, -158, -313, -170, -63, 39, 523, 777, 742, 662, 460, 201, -109, 
-257, -21, 206, -256, -446, -37, 146, 158, 43, 148, 271, -75, -364, -411, -653, -1016, 
-969, -819, -682, -432, -353, -295, -378, -459, -457, -607, -390, 7, 19, -159, -394, -653, 
-714, -751, -912, -875, -741, -848, -605, -158, -47, 59, 351, 411, 586, 662, 593, 345, 
31, -1, 229, 187, -108, -136, -65, -45, 185, 297, 245, 164, 169, 270, 123, -32, 
-41, -144, -12, 47, -17, 16, 108, 280, 212, 30, -66, -187, -211, -66, -181, -298, 
-206, -228, -226, -64, 109, 33, -147, -123, -84, -111, -62, -109, -117, -10, 93, 46, 
-63, -164, -51, -153, -134, -102, -22, 92, 65, 130, 220, 25, 36, 234, 569, 550, 
304, 226, 157, 73, 81, -18, -54, 124, 236, 251, 176, 176, 267, 162, -26, -41, 
-136, -79, 181, 47, -161, -111, 30, 89, 39, -89, -99, -79, -178, -72, 35, 12, 
-31, -49, -10, 173, 33, -143, -293, -239, -247, -243, -195, -139, -185, -291, -317, -138, 
63, 74, 141, 153, 71, -59, -134, -239, -168, -48, 3, -12, -39, 275, 316, 199, 
412, 388, 55, -76, -101, -253, -97, 82, 65, -38, -143, -427, -523, -196, 30, 24, 
-13, -129, -229, -104, -34, -205, -561, -426, -279, -435, -422, -375, -349, -591, -714, -573, 
-584, -381, -175, -30, 52, -82, -33, 322, 176, -166, -267, -101, 154, 9, -23, -14, 
-184, -33, 0, -131, 12, -32, 27, 348, 732, 495, 211, 359, 474, 395, 381, 260, 
36, -278, -241, -219, -180, -160, -113, 67, 381, 406, 333, 377, 519, 425, 303, 646, 
882, 618, 70, -331, -51, -12, -541, -612, -574, -693, -626, -601, -195, 10, -203, -407, 
-662, -604, -366, -333, -260, -281, -173, -69, -357, -517, -242, -166, -521, -488, -232, -229, 
-77, 81, -39, -160, 9, 190, 262, -61, 61, 183, 3, 78, 214, 197, 32, 162, 
222, 361, 356, 318, 310, 359, 510, 745, 789, 447, -23, -201, 256, 452, 241, 255, 
513, 550, 415, 213, 214, 191, 184, 276, 118, -104, -165, -43, -182, -696, -806, -682, 
-670, -558, -242, 4, 56, 69, -104, -145, -70, -250, -331, -317, -370, -425, -517, -664, 
-487, -297, -70, 76, -49, 20, 210, 403, 525, 551, 545, 752, 1054, 1369, 1392, 1209, 
989, 1124, 1220, 973, 620, 386, 238, 271, 249, 196, 303, 171, 129, 183, 185, 246, 
31, -133, -117, -164, -164, -195, -405, -765, -900, -885, -822, -857, -759, -343, -194, -101, 
-9, -132, -93, -184, -431, -365, -426, -404, -216, -200, -479, -728, -645, -486, -485, -346, 
-223, -93, 92, 47, -148, -128, 122, 330, 490, 478, 346, 485, 707, 663, 812, 1160, 
-69, -132, -78, -59, -74, -55, -67, -39, 25, 11, 35, -14, -102, -73, -29, -27, 
0, -59, -103, -148, -58, -52, -62, -42, -89, -76, -17, -17, 16, 0, 2, 57, 
107, 63, 52, 18, -1, -47, -39, -25, -53, -15, 34, 43, 0, 55, 23, -5, 
3, -42, -83, -75, -113, -115, -83, -92, -92, -83, -37, 11, 64, 26, 12, -24, 
-42, -14, -10, 33, -8, 0, 36, -98, -152, -65, -48, -105, -142, -111, -149, -138, 
-199, -193, -243, -242, -180, -156, -191, -69, -57, -99, 5, -16, -39, -46, 32, -7, 
35, 63, 35, 28, -71, -59, -16, 7, 70, 75, 129, 49, 36, 18, -14, -52, 
-74, -119, -110, -41, -71, -65, -36, -53, -104, -96, -65, 40, 91, 63, -9, -69, 
-193, -238, -102, -114, -96, -18, 118, 92, 13, -214, -48, 139, 38, 57, 72, -38, 
-36, -96, -129, -82, -180, -223, -133, -52, 20, 110, 74, 6, -98, -134, -58, -28, 
-76, -78, -129, -245, -237, -222, -249, -232, -222, -308, -281, -110, -79, -21, 14, 33, 
-154, -273, -302, -374, -271, -309, -444, -244, -147, -79, 43, 57, 113, 135, 89, -28, 
-243, -395, -591, -579, -506, -494, -451, -487, -455, -167, -18, -197, -261, -211, -223, -255, 
-276, -476, -458, -312, -248, -268, -120, -71, 78, 183, 133, 159, 163, 61, 88, 39, 
-8, -28, -254, -231, -210, -124, -26, -93, -158, -203, -272, -203, -230, -208, -191, -318, 
-410, -300, -107, -213, -194, -122, -143, -45, -80, -57, 52, -5, -38, -28, -87, -136, 
410, 554, 522, 485, 409, 229, 276, 343, 250, 287, 460, 494, 269, 12, 261, 336, 
135, 105, 129, 256, 303, 308, 352, 107, 7, 45, 29, 14, -36, 76, 43, -253, 
-299, -413, -358, -285, -351, -256, -245, -311, -294, -255, -207, -111, -95, 37, -4, 48, 
73, -10, -261, -173, -34, -66, 57, 123, 230, 322, 360, 325, 339, 351, 438, 390, 
273, 272, 139, -45, -65, -171, -60, -67, 12, 242, 443, 409, 347, 264, 132, -36, 
-89, 23, 166, -118, -190, -7, 141, 116, 38, 112, 164, 10, -189, -169, -314, -534, 
-441, -360, -338, -173, -107, -119, -119, -195, -166, -268, -121, 76, 47, -85, -149, -291, 
-357, -350, -428, -430, -367, -418, -300, -37, -19, 66, 212, 203, 263, 314, 273, 206, 
-255, -229, -212, -197, -19, 117, 61, -34, -224, -341, -16, 78, 260, 471, 471, 577, 
514, 107, -157, -185, -117, 1, -206, -317, -113, -83, -160, -100, -137, 127, 332, 89, 
116, 111, 27, -22, -89, -184, -141, -27, -3, -138, -293, -432, -426, -209, -174, -50, 
-182, -224, 28, 57, -19, 107, 115, 276, 277, 413, 557, 357, 330, -34, -352, -357, 
-430, -179, 73, -6, 61, 224, 352, 385, 227, 174, 61, -146, -92, -72, -103, 8, 
209, 162, -36, 18, 86, 31, -38, 63, 283, 214, -13, -260, -308, -266, -206, -169, 
-9, 247, 369, 285, 71, -52, -50, -50, -105, -197, -213, -272, -315, -410, -307, -257, 
-185, 205, 689, 564, 333, 107, -89, -292, -173, -86, 16, 170, 269, 268, 283, 301, 
-370, -272, -238, -149, -135, -95, -7, 197, 612, 608, 590, 805, 761, 514, 164, 88, 
352, 454, 159, -153, -15, 44, -64, 156, 224, 77, 213, 135, 5, -332, -547, -630, 
-844, -926, -620, -403, -207, -393, -611, -600, -651, -774, -795, -584, -269, -109, -269, -292, 
-258, -210, -212, -231, -37, 97, 84, 379, 467, 547, 460, 195, 49, 11, 197, 423, 
565, 595, 480, 571, 674, 497, 625, 623, 751, 852, 382, 122, 6, -87, 23, -46, 
-66, -150, -369, -436, -245, 57, -142, -264, -235, -275, -442, -623, -680, -718, -791, -669, 
-567, -495, -487, -483, -505, -610, -403, -258, -327, -379, -509, -345, 75, 114, -130, -199, 
-86, 73, 185, 245, 353, 370, 673, 969, 816, 682, 557, 428, 496, 342, 115, 80, 
-401, -335, -422, -483, -550, -476, -602, -542, -415, -434, -401, -361, -330, 10, 136, 16, 
165, -113, -287, -189, -322, -383, -253, -47, -65, 3, 206, 233, 232, 326, 178, 257, 
537, 827, 1053, 1145, 1044, 932, 749, 504, 584, 707, 429, 410, 572, 406, 126, 6, 
-30, 105, -67, -376, -609, -635, -471, -410, -482, -593, -701, -553, -387, -355, -12, -215, 
-580, -639, -920, -1068, -994, -743, -754, -923, -762, -554, -369, -545, -760, -354, 24, -28, 
-213, -296, -263, -214, -169, 47, 419, 594, 538, 460, 603, 682, 707, 466, 292, 538, 
939, 1022, 892, 860, 869, 846, 693, 602, 632, 736, 338, -30, -290, -398, -362, -382, 
-320, -268, -500, -334, -191, -510, -606, -690, -715, -434, -532, -570, -583, -664, -580, -573, 
178, 358, 642, 627, 550, 536, 625, 549, 457, 506, 485, 351, 235, 135, 140, 109, 
-34, -129, 2, -6, 191, 180, 53, 62, 9, -67, -40, -279, -514, -545, -703, -717, 
-552, -415, -476, -461, -428, -493, -413, -244, -136, -193, -335, -481, -511, -423, -395, -538, 
-524, -329, -208, -266, -239, -95, 128, 424, 428, 411, 294, 67, 11, 157, 216, 264, 
230, 144, 233, 159, 271, 475, 514, 278, -72, -134, -119, -77, 79, -28, -116, -211, 
-473, -612, -375, -257, -430, -556, -539, -326, -311, -466, -488, -504, -406, -142, -2, -70, 
-200, -278, -391, -404, -431, -239, 28, 14, 50, 32, -42, 8, 9, -1, 109, 350, 
637, 763, 761, 606, 556, 466, 324, 282, 363, 326, 415, 337, 233, 150, 191, 278, 
-67, -381, -367, -94, 53, -161, -391, -338, -515, -570, -328, -193, -186, -144, -208, -162, 
-324, -271, -126, -129, -183, 101, 85, 7, -5, -64, -70, -113, -56, 0, 73, 87, 
295, 542, 490, 243, 327, 410, 537, 832, 674, 382, 321, 99, -172, -357, -256, 116, 
139, -23, -186, -276, -129, -5, -102, -281, -58, 51, -75, -12, 146, 45, -69, 29, 
-220, -533, -691, -694, -428, -303, -224, -27, -108, -159, -149, -278, -89, 96, 34, -47, 
-32, -117, -123, -172, -316, -224, -45, 441, 798, 676, 503, 319, 294, 460, 233, 183, 
351, 254, 239, 553, 561, 211, 232, 247, 174, 61, -185, -226, -17, -81, -38, 265, 
129, 27, 97, -152, -82, 11, -215, -133, -7, -214, -276, -199, -276, -230, -83, -164, 
-239, -164, -16, 47, 25, -139, -243, -101, 85, 37, -101, -382, -579, -627, -782, -849, 
-744, -571, -263, -110, 78, 27, -121, -164, -217, -200, -115, -246, -509, -565, -301, 36, 
152, 99, 39, 127, 293, 453, 586, 876, 1015, 883, 709, 521, 665, 619, 588, 415, 
341, 453, 511, 275, 2, -147, -233, -275, -264, -97, -28, -45, -65, -86, -92, -118, 
-236, -288, -355, -555, -642, -549, -299, -293, -354, -339, -100, 75, 79, 7, -191, -333, 
-326, -329, -314, -229, -160, -368, -644, -505, -247, 56, 164, -21, 17, 247, 346, 499, 
615, 682, 642, 450, 462, 505, 501, 315, 150, 240, 221, 314, 694, 760, 774, 654, 
527, 733, 725, 470, 168, -100, -133, -141, -68, -116, -205, -339, -496, -569, -530, -376, 
-42, -53, -29, -31, -48, 13, -9, -36, -61, -76, -27, 29, 40, 99, 37, 87, 
66, -19, -43, -73, -22, -23, -32, -53, -5, 4, -13, 11, -34, 29, 45, 30, 
25, -5, 26, -28, -23, -68, -2, -32, -41, -44, -25, -103, -92, -52, -30, -8, 
-20, -62, -26, 12, -19, -30, -7, 4, 76, 63, 99, 54, 22, 28, -58, -52, 
-85, -29, -29, -33, -1, 0, 57, 42, 56, 0, -19, -48, -8, -7, -13, -15, 
44, 40, 0, -21, 2, 12, -59, -12, 15, 66, -49, -57, -67, -70, -52, -41, 
1, -5, 46, 38, 27, -1, -60, -6, 18, -4, -36, -36, -83, -61, -67, -67, 
-65, 2, 139, 71, 25, 11, -36, -77, -12, -15, 17, -29, 64, 26, 26, 54, 
60, 95, 3, 55, 68, 27, 117, 152, 332, 364, 344, 451, 451, 308, 127, 125, 
198, 274, 149, -21, 80, 86, 56, 179, 167, 169, 241, 181, 96, -49, -203, -168, 
-318, -298, -174, -76, -32, -90, -198, -245, -264, -309, -273, -267, -138, 0, -53, -79, 
-96, -47, -67, -73, 34, 111, 96, 256, 247, 287, 253, 113, -35, -6, 30, 180, 
204, 205, 170, 245, 276, 154, 185, 232, 264, 289, 136, 14, -61, -92, -38, 1, 
-51, -123, -216, -197, -150, -18, -53, -53, 1, -48, -171, -212, -298, -323, -353, -304, 
-287, -210, -194, -236, -221, -269, -218, -90, -159, -146, -226, -183, 55, 89, 37, 13, 
-13, 75, 82, 93, 145, 191, 310, 402, 272, 250, 229, 163, 158, 120, -9, -26, 
-107, -115, -85, -88, -153, -112, -211, -206, -139, -161, -129, -97, -115, -26, 76, 60, 
95, 22, -100, -87, -80, -96, -48, -6, -16, -63, 96, 80, 125, 165, 81, 121, 
275, 341, 432, 453, 417, 362, 282, 224, 256, 294, 126, 160, 195, 204, 65, -21, 
-3, 80, 21, -172, -291, -277, -177, -90, -113, -187, -267, -168, -110, -32, 49, 9, 
-163, -262, -357, -400, -399, -313, -301, -360, -307, -202, -105, -190, -331, -135, -9, -2, 
-20, -64, -86, -107, -123, 15, 152, 251, 254, 178, 222, 227, 247, 79, 10, 191, 
378, 353, 322, 322, 365, 340, 273, 194, 193, 252, 146, -76, -152, -222, -200, -174, 
-202, -136, -264, -113, -88, -198, -281, -353, -284, -175, -234, -208, -243, -234, -253, -276, 
-288, -131, 131, 161, 23, -156, -278, -532, -499, -428, -342, -23, 84, 116, -33, -54, 
-237, -479, -509, -321, -136, 136, 146, -40, -64, -95, -81, 98, 113, 94, 86, 144, 
303, 528, 773, 805, 537, 372, 351, 204, 145, 9, -94, -426, -829, -783, -998, -1248, 
-1226, -1252, -1055, -698, -483, -110, 237, 387, 361, 476, 610, 897, 1196, 1389, 1496, 1341, 
1093, 1241, 1310, 845, 383, -87, -487, -788, -1025, -1122, -1235, -1149, -908, -964, -1203, -1068, 
-750, -556, -388, -185, 3, 194, 420, 481, 763, 797, 830, 979, 918, 840, 704, 426, 
265, 227, 78, -50, 0, 1, -61, -133, -376, -521, -366, -484, -660, -623, -528, -391, 
-14, 39, -34, 142, 404, 440, 467, 485, 698, 702, 444, 383, 170, 39, 20, 140, 
-245, -377, -419, -292, -133, -119, 28, -15, -147, 154, 307, 140, -47, -97, 210, 306, 
262, -59, -481, -357, -295, -339, -495, -792, -950, -878, -537, -419, -281, -62, -212, -172, 
105, 165, 116, 81, 171, 244, 255, 527, 769, 1019, 1210, 979, 651, 572, 498, 480, 
451, 424, 247, 159, 219, 81, -114, -354, -452, -242, -149, -334, -341, -487, -453, 30, 
154, 85, 185, 303, 418, 602, 776, 856, 864, 627, 510, 251, 74, 67, -76, -301, 
-577, -624, -647, -649, -446, -512, -557, -452, -294, -186, -224, -134, -66, -48, 56, 327, 
377, 222, 335, 398, 297, 325, 374, 3, -170, -156, -203, -130, -178, -150, 39, 44, 
54, -43, 44, 228, 325, 528, 771, 806, 683, 388, 310, 170, 228, 319, 210, 244, 
-138, -252, -58, 83, -72, -270, -372, -331, -69, 146, 186, 187, 400, 557, 311, 8, 
223, 418, 494, 353, -209, -434, -742, -1000, -807, -745, -746, -707, -730, -601, -310, -135, 
-105, -97, 87, 227, 40, 244, 531, 721, 637, 510, 630, 873, 688, 564, 697, 650, 
314, -136, -360, -465, -608, -920, -1294, -1390, -1004, -513, -518, -401, -7, 230, 242, 125, 
60, 189, 382, 614, 708, 693, 723, 297, 42, 16, -3, -19, -63, -290, -329, -116, 
47, 63, -64, -263, -363, 46, 102, -10, 174, 169, -83, -51, -67, 75, 355, 430, 
431, 323, 417, 445, 153, -6, -21, -61, -203, -394, -566, -579, -552, -470, -350, -141, 
-191, -138, 50, -147, -263, -40, 53, 63, 99, 273, 385, 478, 280, -133, -298, -471, 
-68, -297, -440, -313, -236, -340, -312, -36, -20, -39, -202, -266, -151, -72, 0, -48, 
-262, -234, -92, 72, 133, 14, -18, 108, 9, -16, -159, -209, -91, 76, 21, 65, 
25, -71, 27, 65, 20, -140, 37, 273, 237, 251, 345, 241, 241, 306, 234, 307, 
282, 252, 178, 169, 186, 60, -49, 11, 165, 158, 69, 74, 395, 672, 592, 363, 
278, 393, 550, 572, 426, 407, 600, 527, 419, 289, 245, 271, 231, 89, 63, 174, 
386, 366, 221, 167, 204, 280, 243, 160, 356, 632, 576, 433, 471, 434, 291, 202, 
175, 313, 356, 320, 173, 27, 33, 151, 192, 188, 144, 143, 237, 255, 220, 159, 
211, 182, 174, 306, 272, 45, -134, -203, -115, -153, -11, 210, 243, 96, -55, -126, 
-98, -59, -184, -236, -165, 61, 157, 36, -120, -367, -381, -42, -20, -23, 18, 75, 
146, 1, -122, 59, 122, -54, -60, 318, 503, 497, 242, 12, 115, 181, -22, -161, 
-167, -51, 25, -134, -66, -24, -48, -102, -373, -454, -38, 38, -137, -211, -27, 226, 
242, 273, 356, 451, 299, -106, 163, 563, 206, -99, -140, -240, -234, -451, -528, -278, 
-288, -219, -102, -3, -96, -193, -356, -239, -278, -131, 55, 3, -33, 129, 232, 310, 
123, 58, 95, 27, -405, -646, -540, -293, -267, -289, -280, -212, -151, -141, -202, -400, 
-330, 76, 271, 0, -186, -50, 42, 162, 163, 100, 135, -34, -109, 160, -3, -284, 
-434, -323, -284, -58, 83, 69, -1, 14, 0, -113, -217, -347, -592, -458, -319, -483, 
543, 482, 445, 181, -29, 32, -67, 35, 24, 76, 124, -3, -316, -408, -347, -144, 
-204, -367, -312, -220, -246, -320, -204, -130, -224, -182, -211, -321, -314, -347, -273, -88, 
-77, 104, 410, 460, 301, 65, 120, 216, 313, 423, 455, 400, 351, 349, 257, 171, 
291, 131, -151, -211, -242, -69, -199, -301, -123, 13, 98, -50, 136, 299, 22, -87, 
243, 462, 334, 68, 2, 9, 67, 356, 372, 270, 132, 85, 21, -130, -50, -68, 
-50, -40, 2, 31, -55, -189, -158, 152, 537, 734, 599, 199, -64, 8, 250, 339, 
410, 396, 463, 475, 338, 160, 84, 185, 267, 201, 34, 30, -56, -37, 204, 523, 
695, 470, 183, 155, 163, 156, 67, 109, 345, 376, 375, 522, 598, 353, 115, 141, 
-51, -23, -5, 40, -26, -40, -100, -159, -124, -118, -71, -42, -49, -6, -69, -43, 
-95, -109, -170, -132, -94, -3, -5, -73, -39, -65, -55, 15, 22, -14, -11, 4, 
47, 78, 83, 135, 24, 51, 12, -34, -11, -11, -100, -106, -192, -209, -213, -270, 
-297, -293, -242, -179, -96, -67, 54, 44, 26, 64, 125, 168, 202, 255, 253, 249, 
153, 185, 173, 98, 1, -72, -149, -237, -270, -296, -320, -273, -258, -250, -314, -274, 
-225, -167, -115, -99, -61, 42, 87, 58, 135, 166, 126, 163, 200, 107, 124, 52, 
31, -30, -49, -44, -65, -47, -78, -84, -115, -146, -97, -97, -136, -158, -173, -135, 
-25, -42, -35, 0, 50, 55, 54, 77, 123, 138, 73, 49, 31, -23, -1, 49, 
-51, -87, -91, -46, 25, -9, 93, 36, -40, 157, 269, 165, -1, 4, 173, 185, 
183, -11, -250, -168, -106, -194, -264, -397, -460, -409, -289, -203, -111, -64, -151, -67, 
59, 66, 34, 2, 63, 84, 96, 260, 393, 424, 535, 446, 322, 229, 198, 221, 
144, 143, 95, 50, 68, 0, -105, -290, -325, -136, -124, -189, -207, -343, -280, -29, 
33, -23, 35, 60, 132, 246, 323, 344, 397, 302, 188, 130, 38, -12, -103, -205, 
-346, -338, -387, -346, -287, -302, -351, -259, -172, -189, -167, -126, -77, -89, 20, 117, 
159, 73, 135, 174, 128, 113, 141, -31, -72, -50, -70, -92, -126, -86, -15, -15, 
19, -37, 26, 63, 123, 195, 381, 429, 306, 170, 114, 34, 77, 197, 102, 121, 
-12, -92, -17, 76, -40, -72, -139, -167, 6, 69, 38, 56, 119, 255, 146, 16, 
98, 166, 145, 113, -127, -209, -363, -494, -419, -370, -355, -285, -338, -229, -141, -83, 
-40, -67, 79, 54, 69, 130, 227, 291, 289, 260, 234, 297, 251, 250, 244, 234, 
72, -13, -112, -196, -306, -464, -595, -585, -430, -209, -207, -182, -38, 66, 43, 15, 
2, 104, 175, 267, 250, 244, 261, 76, -47, -23, -34, -47, -74, -132, -108, -80, 
-6, 22, -97, -193, -230, 23, 53, -33, 71, 31, -69, -94, -52, -17, 166, 128, 
181, 99, 123, 148, 86, 0, 15, -24, -57, -138, -211, -259, -221, -236, -192, -92, 
-72, -109, -23, -62, -110, -41, 5, 9, 44, 115, 161, 189, 93, -12, -104, -217, 
168, 90, 60, 68, 91, 32, -9, -51, -119, -144, -133, -138, -20, 24, 49, 86, 
86, 65, 33, -10, 20, 67, 102, 156, 217, 274, 292, 227, 161, 59, 78, 43, 
-15, -6, -79, -67, -73, -132, -79, -101, -99, -20, -19, 14, -5, -41, -5, -21, 
-33, 0, 61, 86, 84, 127, 148, 187, 111, 112, 45, -18, -12, -14, -43, -88, 
-176, -256, -205, -190, -98, -52, -56, -55, -25, -69, -32, -15, -25, 79, 86, 50, 
89, 43, 95, 132, 99, 34, 23, 20, 2, -17, -69, -57, -123, -120, -72, -68, 
-47, -31, -54, -2, 42, 26, 43, -1, 23, 85, 94, 40, 70, 63, 14, 38, 
101, 76, 57, 40, 15, -22, -103, -179, -250, -206, -148, -71, -68, -75, -40, -38, 
-124, -107, -106, -41, 2, -3, -50, -51, -35, 32, 137, 184, 211, 188, 174, 172, 
106, 194, 187, 144, 81, -42, -7, -35, 29, 36, 21, 2, 74, 21, 7, 51, 
21, 3, -2, -6, -17, 44, 45, 84, 128, 216, 302, 288, 152, 170, 146, 112, 
151, 118, 0, -64, -88, -133, -130, -171, -110, -139, -138, -57, 58, 14, 56, 128, 
88, 110, 141, 76, 34, -26, -45, -18, -15, -30, -19, -46, -94, -132, -104, -76, 
-100, -80, -22, 15, -21, 21, -33, 64, 79, 29, 76, 95, 92, 83, 86, 105, 
69, 51, 14, 17, 0, 29, 2, -22, -158, -177, -102, -116, -97, -86, -68, -47, 
-21, -54, -24, -40, -83, -42, -60, 40, 134, 195, 169, 160, 128, 45, 9, 5, 
99, 35, 70, 70, -43, -54, -108, -84, -34, 60, 112, 139, 170, 197, 199, 114, 
63, 134, 98, 19, -26, -14, -19, 35, -32, -62, -165, -127, -130, -88, -35, -54, 
-87, -143, -147, -177, -55, 24, 72, 120, 125, 156, 232, 131, 165, 104, 68, 55, 
-89, -57, -33, -9, -78, -43, -69, -205, -253, -141, -138, -63, -57, -40, -25, 7, 
62, 97, 106, 188, 89, 101, 68, -12, -21, 19, -11, 13, 33, 15, 19, -30, 
-93, -74, -67, -183, -130, -123, -220, -144, -134, -88, 0, -30, -3, 23, 108, 91, 
83, 93, 106, 63, 26, -22, -42, -15, 0, 29, 23, 92, 99, 50, 14, -94, 
-135, -49, -37, -74, -58, -108, -20, 60, 138, 163, 76, 87, 40, 40, -23, -69, 
1, -3, -29, -6, 9, -13, 56, 106, 81, 118, 81, 51, 25, 4, -61, -66, 
-45, -28, -97, -56, -58, -10, 53, 68, 44, 44, 87, 46, 4, 20, 1, 51, 
44, 51, 96, 67, 50, 0, 16, 2, -42, 7, -9, 20, 14, 75, 76, -10, 
-21, -26, -71, -61, -98, -68, -54, 17, 9, -12, 46, 62, 95, 39, 43, -2, 
-23, 10, -34, -21, -62, -40, -8, -34, 22, -16, -12, -17, -10, 23, 38, -33, 
-19, -55, -66, -58, -42, 53, 42, 78, 97, 76, 115, 95, 43, 19, 34, 64, 
27, -6, 22, 57, 15, 52, 25, 51, 37, 101, 92, 92, 66, 49, 8, -14, 
-59, -76, -19, -12, -9, -27, -6, 13, -25, -70, -117, -118, -118, -99, -57, -87, 
104, 34, -47, -47, -92, -109, 56, 146, 225, 178, 138, 81, 22, -18, -83, -168, 
-180, -150, -150, -63, -86, -42, 25, -19, -46, -55, -109, -63, -50, -29, -3, 53, 
144, 111, 47, 63, -33, -7, 67, 103, 61, 11, -22, -16, -18, -68, -94, -92, 
-94, -34, -41, -19, 11, 13, -4, -30, 59, 35, 38, 71, 40, -2, 15, 47, 
63, 177, 178, 89, 22, -10, -90, -98, -51, -24, -62, 6, -48, -50, 9, -3, 
-71, -91, -146, -119, -70, -40, -89, -58, 22, 105, 34, 96, 68, 21, 34, 99, 
76, 2, -68, -147, -113, -108, -1, 67, 103, 146, 108, 73, 38, -51, -39, -72, 
-26, 29, 128, 145, 147, 89, 41, 14, 7, -17, -28, -43, -46, -118, -167, -209, 
-148, -201, -155, -89, -70, -77, -56, 28, 58, 63, 59, 19, -41, -94, -76, 2, 
-43, -87, -76, -80, -29, 19, 16, 71, 139, 111, 27, 41, -34, 0, 0, 106, 
146, 142, 113, 102, 42, 33, -62, -31, -15, 8, 36, 93, 33, 78, 53, 79, 
65, 90, 48, 50, 20, -1, 7, 14, 21, 12, -25, 5, 9, 25, -6, -14, 
61, 58, 126, 106, 8, -27, -67, -58, -63, -48, -116, -145, -30, -4, 7, -15, 
-57, -32, -30, -46, -49, -81, -63, -64, 50, 95, 151, 146, 114, 49, 82, 62, 
41, -20, -40, -51, -27, -73, -45, -54, 7, -35, -26, 12, -6, 40, 125, 143, 
115, 107, 86, 116, 90, 41, -2, 12, -15, 24, 23, -63, -77, -116, -54, -78, 
-97, -77, -90, -85, -85, -127, -68, -107, -107, -126, -128, -133, -108, -104, -123, -91, 
-63, -91, -124, -89, -92, -120, -104, -57, -99, -63, -111, -123, -61, -121, -105, -104, 
-126, -144, -82, -148, -118, -92, -110, -82, -86, -83, -112, -66, -116, -93, -94, -114, 
-68, -100, -68, -106, -124, -106, -110, -76, -83, -71, -126, -134, -98, -93, -99, -95, 
-138, -92, -140, -131, -139, -137, -97, -90, -104, -73, -95, -129, -94, -113, -98, -61, 
-121, -87, -71, -110, -97, -65, -98, -133, -136, -138, -97, -100, -105, -117, -120, -109, 
-103, -129, -81, -108, -109, -100, -64, -75, -77, -86, -96, -99, -107, -108, -117, -65, 
-108, -69, -79, -95, -116, -125, -134, -123, -110, -140, -167, -114, -106, -89, -121, -138, 
-85, -90, -85, -47, -41, -20, -13, -16, -58, -5, 34, 15, 12, 43, 16, 6, 
4, -10, 33, -6, 0, -26, -45, -32, -7, -19, -35, -26, -14, -7, -23, 28, 
10, -22, 10, 1, -17, 24, 14, 38, 10, 21, 17, -13, -15, 7, -4, 30, 
27, -22, -37, 4, -16, -44, -76, -61, -71, -78, -47, -51, -16, -52, 20, -21, 
40, -8, -11, -10, -12, -49, 3, 11, -16, -41, -31, -40, -45, -53, -62, -62, 
-19, 1, 11, -10, 18, -25, -21, -33, 29, 50, -7, 45, -10, 53, 55, 50, 
-4, -1, -38, -25, -35, -26, -11, -28, -53, -57, -40, -58, -7, -54, -37, -8, 
3, 18, -19, -49, -13, -55, -31, -19, -13, 24, 33, 8, 24, 23, -11, -3, 
-6, 38, -22, 32, 13, -1, -45, -17, -46, 51, 23, 50, 44, 58, 100, 86, 
14, 0, 26, -11, 18, -10, 21, -16, 5, 0, -45, -16, -38, -33, -34, -19, 
-30, 6, 0, 0, 15, 5, -30, 10, 50, 27, 67, -12, 55, 69, 11, -10, 
4, -27, -47, -20, -7, -46, 9, -38, -8, -30, -61, -40, 9, 5, 25, 32, 
38, 12, 41, 73, 22, -9, 20, -47, -39, 6, -11, 42, 13, 36, 21, 41, 
30, 21, -43, -13, -33, -38, -11, -42, -23, 10, 22, -6, -16, 16, -12, 25, 
25, 38, 14, -14, -27, 6, -27, -2, 0, 15, 0, -11, 7, 8, -37, -38, 
-5, 15, -29, 26, -47, -36, 37, 0, 21, -2, 9, 4, -17, -43, -20, -36, 
57, -5, -16, 33, 217, 346, 337, 271, 213, 182, 180, 157, 81, 33, -61, -78, 
-22, 131, 59, 124, 8, -45, 9, -31, -58, -57, -22, -52, -56, -12, 17, -15, 
202, 154, 145, 214, 208, 282, 205, 158, 146, 64, 51, 81, 90, 13, -75, -48, 
-6, 1, -32, -85, -112, -80, -61, -36, -31, 50, 57, 156, 178, 46, 61, 90, 
69, 78, 30, 45, 78, 139, 141, 55, 90, 140, 142, -17, -31, -76, -68, -71, 
-74, -10, 23, -6, -48, -2, -42, -229, -305, -155, -8, -8, 43, -47, -165, -117, 
-90, -49, 118, 199, 122, 73, 89, 18, -1, 18, -67, -63, -76, -30, 55, 83, 
105, 28, 4, 98, 122, 112, 72, -109, -211, -191, -215, -120, 11, -48, -103, -39, 
-102, -157, -114, -155, -251, -166, -162, -19, -64, -51, 46, 156, 359, 350, 284, 58, 
-25, -20, -71, 19, 83, 98, 94, -8, -1, -50, -69, 4, 20, 7, 135, 63, 
44, 50, 132, 203, 174, 72, -55, -3, -33, 167, 157, 138, 73, -51, -181, -93, 
-29, -22, 51, 60, 70, 35, -50, -64, -104, -151, -145, -28, 88, 14, 14, 78, 
102, 80, 116, 144, -63, -113, 7, 196, 239, 80, -136, -106, -48, -67, 17, -1, 
-49, 56, 56, -2, 89, 175, 84, 55, -38, -57, -125, -37, -24, -115, -99, -73, 
-28, 100, 197, 108, 57, -17, -81, 52, 87, 59, 157, 125, -12, -18, 63, 217, 
197, 184, 9, 3, -14, -110, -130, -145, -96, -95, -98, -158, -136, -139, -115, -167, 
-145, -63, -48, -106, -232, -269, -206, -265, -346, -372, -372, -302, -141, -120, -79, -134, 
-129, -41, 41, -5, -101, -134, -92, -78, -88, -42, -21, 3, -5, -37, -87, -16, 
100, 147, 258, 211, 199, 275, 332, 263, 191, 141, -70, -248, -290, -154, -16, 7, 
23, -67, -136, -276, -434, -350, -240, -196, -163, -68, -59, -92, -129, -99, -62, 19, 
122, 174, 155, 67, 16, -111, -261, -256, -200, -25, -101, -94, -146, -159, -88, -132, 
-222, -260, -387, -328, -217, -83, 7, 43, 28, 52, 98, 175, 306, 387, 290, 283, 
258, 287, 295, 288, 407, 435, 228, 135, 49, -151, -257, -180, -186, -283, -225, -321, 
-307, -325, -283, -311, -235, -152, -97, 0, 111, 179, 241, 161, 49, 59, 123, 76, 
8, -29, -33, -59, -7, 20, 126, 91, 26, 70, 29, -100, -73, -92, -46, 12, 
-41, -3, -44, -10, 23, 3, 64, 74, 49, 60, 22, -7, 143, 102, 43, -2, 
-79, -28, -92, -50, -34, -1, 25, 37, 170, 52, 15, -60, -69, -109, -100, -2, 
-15, -26, -113, -112, -64, -103, 0, 28, -38, 0, -63, -69, -51, -102, -99, 0, 
7, -40, 25, 43, 21, 19, 33, -25, -8, -74, -101, -137, -72, -11, 92, 197, 
124, 85, 70, 71, 83, 120, 94, 87, 91, 131, 151, 130, 167, 102, 119, 49, 
2, 6, 42, 50, 99, 145, 157, 125, -3, -14, 8, -76, -137, -86, 8, 27, 
-10, -76, -57, -82, -103, -47, -13, -39, -32, -29, -31, 90, 155, 132, 62, 50, 
-49, -162, -213, -331, -322, -75, 69, 150, -35, -23, 26, 6, 68, 179, 164, 95, 
17, -115, -121, -72, -99, -152, -52, 93, 140, 172, 117, -13, 74, 168, 228, 225, 
203, 273, 256, 251, 230, 157, 24, -30, 11, 45, 20, -86, 20, 142, 57, -30, 
-35, -84, 111, 145, 201, -84, -55, 5, 15, 10, 1, 91, 266, 231, 113, -59, 
-151, -237, -129, -81, 58, 124, 107, 44, -73, -67, 108, 154, 101, -19, -75, -41, 
-34, 47, 53, 30, 99, 100, 95, 94, -75, -116, -93, 20, 168, 89, -10, -49, 
-91, -44, 84, 181, 95, 119, 163, 58, -130, -170, -44, -39, -96, -61, -61, -135, 
-183, -237, -211, -180, -115, -128, -123, -65, -217, -247, -424, -314, -165, -60, 168, 295, 
-46, 38, -29, -108, -92, -47, -29, -32, -29, -178, -190, -174, -146, -145, -51, 2, 
15, 61, 35, -17, 113, 96, 68, 96, 16, -62, -49, -20, 14, 59, 87, 15, 
-12, 21, -42, -1, -19, -57, -3, -17, 12, 57, 105, 40, 56, 42, 43, 132, 
161, 60, 32, -49, -29, 17, 47, 32, 86, 34, 38, -52, -18, 20, 8, 76, 
-17, -48, 42, -28, 2, -141, -219, -87, -12, 47, 104, 86, 78, 137, 86, -6, 
32, 7, -114, -76, -189, -172, -161, -198, -216, -302, -257, -296, -349, -320, -337, -331, 
-296, -130, -126, -107, -42, -25, -77, -56, 1, 51, 114, 115, 112, 105, -51, -16, 
53, 111, 20, -12, -6, 0, 96, 112, 102, 106, 25, 79, 71, 134, 192, 139, 
-246, -257, -289, -286, -265, -214, -217, -180, -206, -165, -162, -180, -198, -263, -225, -231, 
-247, -256, -260, -227, -231, -228, -230, -244, -294, -244, -274, -274, -295, -262, -269, -287, 
-231, -235, -234, -213, -230, -188, -221, -183, -201, -236, -194, -247, -244, -289, -296, -277, 
-239, -263, -237, -256, -310, -239, -265, -238, -292, -249, -269, -271, -234, -279, -239, -252, 
-220, -196, -203, -240, -205, -186, -244, -277, -271, -256, -266, -264, -291, -279, -266, -259, 
-251, -202, -208, -208, -275, -240, -289, -291, -270, -284, -234, -223, -282, -240, -264, -286, 
-258, -256, -203, -262, -216, -245, -284, -276, -243, -282, -266, -283, -253, -249, -235, -214, 
-218, -207, -233, -286, -248, -264, -256, -311, -295, -284, -308, -301, -258, -248, -274, -268, 
220, 167, 197, 175, 150, 200, 169, 219, 210, 201, 166, 210, 208, 217, 182, 181, 
191, 226, 178, 202, 187, 230, 196, 236, 238, 214, 187, 221, 213, 206, 193, 178, 
180, 207, 189, 244, 246, 216, 206, 236, 181, 224, 224, 231, 237, 182, 170, 178, 
166, 209, 216, 195, 230, 192, 214, 175, 226, 178, 200, 197, 193, 207, 227, 187, 
230, 232, 208, 207, 223, 168, 178, 178, 184, 191, 196, 230, 220, 209, 168, 206, 
188, 222, 182, 183, 173, 219, 200, 182, 210, 181, 196, 200, 219, 221, 230, 204, 
198, 202, 193, 208, 236, 190, 208, 208, 219, 174, 207, 188, 170, 214, 211, 245, 
246, 222, 219, 196, 207, 190, 215, 166, 205, 227, 193, 213, 218, 203, 235, 172, 
-51, -38, -83, -45, -85, -86, -69, -44, -87, -59, -81, -125, -108, -77, -30, -102, 
-76, -89, -63, -17, -69, -96, -45, -66, -48, -51, -28, -80, -46, -89, -77, -61, 
-15, -70, -27, -40, -41, 18, 0, -38, -3, -26, -68, -91, -108, -52, -44, -45, 
-35, -78, -62, -95, -103, -64, -91, -86, -56, -86, -62, -62, -77, -100, -32, -22, 
-27, -12, -22, -48, -52, -73, -112, -112, -55, -22, -86, -68, -24, -56, -72, -90, 
-62, -88, -135, -119, -120, -84, -94, -91, -83, -59, -78, -5, -23, -41, -34, -47, 
17, -41, -21, -16, 1, -18, -54, -13, -67, -84, -89, -116, -126, -121, -93, -93, 
-111, -105, -85, -77, -115, -109, -67, -95, -70, -17, -51, -86, -38, -55, -59, -29, 
21, 31, 5, -11, -6, 47, -6, 2, -11, -11, 2, 28, -18, -36, -59, -73, 
-58, 40, -11, 27, 43, -41, 11, -24, 24, 37, -50, 26, 10, 53, 75, 46, 
34, -21, 8, 34, -12, -33, 0, -6, 0, 9, -12, 2, 9, -9, -3, -11, 
6, -13, -39, -11, 20, 26, -17, 0, -6, -10, 46, 50, 87, 115, 20, 13, 
-3, -13, 28, -6, 47, 50, 18, 54, 50, -22, -10, 16, -2, 17, 13, -17, 
-14, -66, -22, -30, -8, 53, 21, 48, 38, 8, 9, 4, -24, 77, -19, -16, 
12, 23, 24, 1, -38, -53, -65, -78, -24, -57, 3, 39, 29, -62, -35, -32, 
-24, -71, 15, 27, 63, 45, 41, 101, 121, 87, 115, 85, 68, 53, 84, -2, 
35, -7, 2, -16, -102, -81, -41, -17, 18, 31, 21, -29, -48, -94, -104, -77, 
-70, -65, -89, -53, -53, 20, -22, -31, -103, -45, -43, -46, -36, -109, -56, -41, 
-30, -14, 20, 41, 67, 54, 34, -19, 19, 27, 41, -18, -23, -78, -34, -42, 
-36, -32, -22, 4, 6, -41, -68, -104, -84, -31, -69, -4, 5, 50, 45, -18, 
-1, 23, -16, 31, -17, -57, 30, 20, -12, 34, 1, -25, -30, 20, 0, 27, 
-39, -37, -3, -12, 60, 16, -28, -73, -29, -19, 29, 74, 79, -21, -25, -30, 
-113, -40, 0, 0, 6, 58, 83, 96, 35, 15, 79, 61, 19, 65, 49, -1, 
69, 70, 78, 19, -21, 0, -6, -44, -6, -20, 45, 55, 44, 1, 29, 40, 
-42, -14, -15, 0, -18, -38, -58, 19, 14, 0, 26, 14, -14, -14, 8, -29, 
-51, -68, -74, -60, -56, -46, -37, -38, -32, -14, -31, -45, -69, -11, -57, -12, 
3, -17, -13, -1, 32, 59, 29, 41, 35, 68, 41, 36, -41, -12, 8, 25, 
17, 31, 15, -28, -39, -65, -111, -87, -59, 3, -52, -29, 25, -15, -3, 52, 
-10, 24, -10, -15, -31, 33, 10, 54, -13, -13, -11, -55, -5, -27, 22, 3, 
-46, 39, 31, 18, 30, -4, 10, 79, 47, 48, 36, 73, 32, -42, -7, 61, 
40, 49, 43, 0, 0, 49, 38, 56, 0, 34, 27, 27, 29, 14, 20, 26, 
36, -40, -41, -23, 28, -14, -51, -44, 8, -16, -38, -10, -21, -34, 19, -49, 
-3, -17, 12, -45, -39, -18, -16, -45, -52, -41, 24, 47, 37, 23, 33, 62, 
10, 65, 51, 39, 41, -7, -9, -10, 25, 16, -34, -53, -33, -56, -57, 31, 
14, 22, -6, 7, -26, 3, -48, -50, -20, 1, -11, -56, -43, -59, -36, -15, 
27, -21, 16, -19, -17, 26, 0, 55, 61, 50, 70, 65, 59, 82, 23, 38, 
78, 71, 31, -3, 38, -18, 13, 28, -19, -15, 13, 18, -17, -42, -66, -19, 
108, 51, 12, 36, 18, 41, -4, 51, 4, 21, 38, -3, -54, -1, -1, 11, 
-11, -32, 0, 30, 70, 22, -35, -17, -45, 17, -2, -41, -26, -12, -12, -11, 
19, -6, 9, -24, -35, -26, 28, 52, -15, -31, -27, 16, -14, -12, -6, -2, 
-89, -84, -56, -38, -2, -18, -31, -10, -42, -32, -42, -65, -57, 16, -24, -35, 
-23, 14, 39, 35, -25, -31, 0, 25, 47, 65, 52, -27, -30, 56, 39, 47, 
3, 4, 24, 55, -4, 12, 61, -17, -11, 6, 1, 4, 5, -18, 56, -9, 
-10, 13, -71, -60, -90, -61, -82, -24, -32, 0, 23, 18, 34, 56, -9, 0, 
-6, 25, -23, -14, 38, -28, -47, -45, -65, -32, 0, -44, 14, -22, -54, 40, 
62, 51, 41, 25, -6, 65, 63, 38, 77, 37, 50, 14, 72, 16, -6, 21, 
-30, -41, 9, 26, -21, -50, -63, -61, -5, -28, -35, -3, 35, 43, 6, -67, 
-112, -103, -78, -26, -48, 9, -38, 21, -23, 19, 29, 48, 99, 43, 13, -11, 
-13, 57, 80, -16, 39, 42, 8, 14, 3, 36, 74, 162, 119, 54, 69, 42, 
88, 72, 63, -17, 5, 4, 36, 2, 48, -76, -12, 2, 31, 53, -5, -8, 
19, 17, 36, 31, -36, -71, -71, -38, 61, 52, 34, 108, 5, -12, 2, -65, 
-59, -47, -41, -51, -71, -86, -51, -22, -61, -32, -38, -77, -105, -77, -45, -24, 
-81, 12, -13, 40, 48, 17, 39, 19, 74, 77, 27, 50, 3, 76, 19, 80, 
55, 36, 20, -5, -47, -51, -15, -51, -42, 36, 34, -12, -5, 0, 9, 60, 
28, 85, 66, 51, -8, 0, -44, -36, -41, -7, 0, -3, 36, 46, -37, -67, 
-61, -70, -52, -19, 20, 11, -16, 7, -2, -19, -96, -107, -34, -4, 32, -80, 
-67, -90, -49, -90, -81, -110, -53, -101, -77, -52, -64, -85, -97, -82, -58, -70, 
-68, -56, -76, -103, -63, -59, -103, -88, -86, -63, -116, -98, -87, -79, -84, -123, 
-90, -79, -111, -57, -104, -73, -78, -35, -77, -38, -64, -46, -117, -62, -56, -113, 
-58, -122, -113, -88, -69, -136, -96, -115, -59, -113, -94, -66, -52, -114, -42, -51, 
-59, -101, -100, -95, -65, -111, -56, -58, -103, -108, -81, -91, -55, -101, -74, -70, 
-108, -79, -91, -59, -99, -75, -62, -80, -107, -46, -47, -70, -92, -62, -66, -45, 
-60, -115, -117, -106, -46, -76, -52, -116, -94, -63, -64, -61, -70, -100, -76, -63, 
-100, -96, -72, -59, -53, -64, -118, -109, -76, -111, -91, -93, -103, -83, -96, -112, 
18, 12, -6, -45, 3, -39, -9, -34, -4, -31, -9, -48, -57, -57, -27, -53, 
-49, -23, -39, -31, -58, 3, -32, -51, -24, -17, 1, -23, -64, -17, -36, -14, 
-5, -50, -16, -26, -46, -38, 15, -43, -4, 3, -16, -41, 9, -53, -33, -32, 
-67, -60, -32, 7, -6, -43, -67, -51, -9, -54, -6, -36, 0, -36, -4, -17, 
3, -49, -41, 9, -17, -37, -38, -2, -32, -43, 0, -5, -1, -35, -35, 2, 
-40, -68, -47, -19, -29, -29, -5, 0, -35, 2, -40, -11, -15, -36, -18, -45, 
-62, -16, -21, -63, -11, -22, -41, -4, -15, 3, -8, -26, -41, -29, -47, -7, 
-26, -55, -36, -1, -16, -8, -9, -61, -40, -15, -48, 0, -45, -59, 1, -25, 
-2, -21, 3, -17, -18, -39, -19, -30, -8, -32, -13, -44, -9, -27, -2, 16, 
14, -27, -21, 11, -9, 0, -5, -9, -2, -13, 7, -35, 12, -20, -39, -48, 
-40, 22, 19, -1, -11, -29, 16, 24, -33, 29, -30, -20, -44, -50, -1, -22, 
-40, -5, -32, -45, -22, -8, -41, 4, -35, -3, -2, -46, -15, -20, 6, 8, 
-35, 13, -4, -30, -33, 1, -10, -10, -31, -27, -21, 22, -15, -24, -32, -5, 
-1, -8, -28, 15, -45, -26, -31, 17, 9, -17, 16, -35, 18, -19, -28, -45, 
-6, -28, -43, 1, -10, 23, -9, -10, -7, -4, 20, -41, -32, 20, -40, -4, 
-4, -39, 13, -38, -9, 6, -16, 8, -21, -42, -14, -10, 14, -11, -21, 7, 
-38, -142, -84, -166, -249, -242, -158, -92, 16, 72, 4, -96, -26, 44, 167, 111, 
-116, -130, -33, 155, 149, 260, 313, 254, 341, 524, 519, 201, 72, -73, -152, -58, 
-299, -485, -320, -199, -97, -158, -304, -388, -424, -203, -184, -214, -309, -195, 337, 471, 
337, 114, -230, -65, 230, 161, 174, 111, -189, -399, -676, -754, -738, -774, -814, -689, 
-399, -203, -67, 5, -212, -191, 64, 21, 0, 388, 554, 605, 491, 385, 450, 589, 
689, 771, 619, 258, 63, 4, -155, -467, -672, -539, -356, -181, 140, 304, 120, 15, 
-205, -534, -470, -461, -423, -196, -30, -142, -199, -32, 98, -57, -21, 167, 273, 479, 
319, 41, -51, -166, -90, -146, -175, -87, -210, -170, -19, -77, -109, -2, -61, -87, 
-316, -126, 108, 169, 134, 62, 84, -12, -132, 78, 222, 210, -12, 13, 200, -5, 
53, 8, -300, -170, -185, -145, 128, 108, -93, -262, -241, -65, -140, -31, 94, 47, 
259, 217, 226, 288, 153, 230, 121, -88, -166, -344, -348, -105, -129, -64, -343, -613, 
-496, -399, -486, -520, -323, -89, -147, -271, -137, -178, -112, -74, 50, 288, 397, 341, 
284, 228, 218, 111, 55, 151, -7, -177, -196, -92, 9, -108, -143, -82, -362, -601, 
-312, -158, -75, 307, 342, 404, 558, 278, 226, 224, 231, 340, 60, 142, 338, 167, 
156, 76, 31, 274, 259, 99, -267, -395, -387, -351, -271, -303, -338, -391, -491, -453, 
-283, -223, -297, -445, -338, -341, -310, -268, -388, -386, -354, -376, -269, -69, -141, 96, 
-690, -335, -112, -49, -125, -516, -627, -527, -510, -354, -398, -483, -561, -769, -690, -550, 
-578, -365, -373, -594, -419, -104, -86, -102, -17, -43, -274, -184, -118, -211, -297, -301, 
-138, -34, 133, 372, 450, 745, 883, 872, 615, 160, 301, 427, 98, 98, 7, -201, 
-56, 65, 215, 267, 399, 701, 460, 75, -33, -162, -188, -79, -49, -12, 308, 290, 
257, 187, -1, -203, -499, -700, -733, -870, -686, -688, -724, -698, -837, -1003, -1003, -766, 
-597, -519, -327, -224, -112, -186, -704, -771, -548, -540, -315, -67, -1, 182, 360, 427, 
259, 38, 111, 193, 66, 67, 236, 216, 143, 169, 329, 670, 628, 119, 149, 173, 
179, 277, 442, 274, 135, 509, 395, 137, 198, -38, -100, 156, 215, 51, -123, -289, 
482, 306, 200, 75, 47, -19, -4, 61, 116, 53, -4, 1, 102, 184, 214, 82, 
75, 41, 38, 150, 183, 145, -36, -196, -75, 154, 161, 133, 210, 156, -35, -146, 
-107, -219, -197, -79, -67, -193, -277, -116, 143, 194, 313, 299, 230, 216, 54, 6, 
74, 38, 153, 299, 357, 499, 409, 125, -6, 71, 193, 321, 319, 255, 215, 24, 
-15, 74, 74, -240, -361, -509, -583, -306, -74, 52, 202, 352, 377, 265, 20, 12, 
-71, -164, 66, 338, 263, 115, -245, -535, -370, 52, 104, 128, 181, 10, -213, -258, 
-124, 19, 80, 252, 297, 69, -199, -77, -3, -100, 83, 255, 234, 105, 147, 217, 
174, 212, -51, -192, -247, -302, -182, -126, -92, 202, 174, 286, 309, 98, 60, -40, 
309, 316, 163, 41, -2, -10, 46, 41, -90, -19, 218, 94, -160, -85, 3, 56, 
192, -100, -243, -204, -208, -10, -2, -17, 110, 130, 247, -66, -449, -103, 127, 297, 
336, -36, 109, 430, 401, 405, 305, 126, 44, -75, 51, -150, -448, -403, -216, 70, 
97, 137, 51, -112, -99, -82, -203, -42, -32, 41, 96, -4, -351, -457, -262, -129, 
-289, -667, -802, -473, -217, -42, -148, -335, -330, -133, 33, 222, 339, 398, 328, 361, 
505, 492, 540, 259, -85, -5, 118, 9, 19, 148, 223, 13, 90, 432, 583, 432, 
325, 386, 355, -38, -167, 183, 257, 277, 218, 18, 191, -41, -411, -150, -44, -185, 
-65, 40, 17, -36, -60, -89, -360, -613, -455, -283, -223, -190, -382, -578, -464, -196, 
581, 325, 41, -344, -420, -201, -260, -261, -364, -589, -668, -717, -578, -467, -464, -374, 
-223, -157, -150, -73, 14, -98, -96, -21, 84, 146, 53, 158, 353, 280, 52, -139, 
17, 164, 303, 380, 204, -18, 22, 259, 424, 529, 379, 274, 216, 89, 32, 76, 
29, -71, -302, -400, -444, -218, 65, -104, -223, -30, 271, 519, 458, 209, -39, -154, 
49, 12, -285, -531, -681, -709, -819, -850, -714, -502, -372, -432, -508, -451, -247, -219, 
-485, -569, -522, -450, -319, -257, -393, -267, -9, 138, 386, 521, 431, 272, 138, 227, 
462, 501, 447, 460, 649, 757, 482, 192, 114, -116, -175, 78, 302, 355, 288, 248, 
130, 47, -87, 31, 112, 129, 189, 76, 78, 413, 363, 142, -85, -345, -341, -517, 
30, -4, -37, -21, -44, 7, 15, 12, -13, 4, 12, -13, 28, -32, 62, 26, 
-44, 8, -13, 0, 59, 21, 57, 34, 75, 64, 62, 33, 5, -3, -61, -39, 
-30, -53, -41, -9, 7, -22, -61, -50, -57, -20, -15, -51, -78, 4, 54, 91, 
37, 41, -85, -43, 8, 35, -4, 30, -45, -36, -130, -150, -130, -112, -164, -82, 
-79, -47, 15, 26, -18, -64, 15, -43, -20, 49, 79, 101, 86, 96, 81, 110, 
113, 106, 131, 59, 10, 25, -9, -89, -156, -129, -59, -55, 21, 54, 0, 1, 
-70, -118, -124, -94, -92, -77, -26, -31, -41, 13, 20, -40, 13, 16, 49, 102, 
36, -23, -37, -37, -26, -63, -40, -40, -42, -45, -5, -31, -42, -9, 11, -45, 
-289, -211, -140, -129, -138, -159, -183, -148, -220, -131, -74, -99, -238, -157, -157, -219, 
-155, -224, -328, -249, -277, -297, -135, -192, -240, -317, -307, -203, -306, -258, -224, -220, 
-155, -117, -127, -93, -123, -102, -199, -266, -306, -324, -382, -257, -225, -273, -409, -487, 
-428, -437, -394, -467, -393, -306, -259, -323, -292, -267, -231, -263, -196, -125, -42, -55, 
-84, -165, -162, -136, -209, -178, -224, -309, -325, -303, -268, -317, -286, -236, -407, -448, 
-373, -323, -278, -101, -71, -61, -1, -88, -138, -136, -170, -127, -211, -138, -121, -151, 
-196, -226, -267, -157, -59, -202, -332, -416, -418, -381, -353, -340, -389, -450, -451, -447, 
-350, -299, -400, -503, -438, -365, -389, -334, -392, -412, -422, -478, -371, -290, -301, -222, 
-118, -4, 90, 148, 59, -57, -148, -129, -103, -17, -76, -99, -146, -191, -197, -148, 
-154, -50, -75, -117, -59, 14, 34, -4, 72, 79, -16, -3, 53, 0, -86, -95, 
35, 63, 83, 203, 248, 364, 463, 479, 291, 132, 140, 204, 90, 70, 52, -98, 
-8, 24, 124, 162, 175, 305, 254, 71, -25, -29, -32, -46, -50, 47, 109, 142, 
141, 64, 40, -49, -151, -301, -333, -374, -269, -255, -306, -262, -314, -389, -392, -257, 
-241, -173, -132, -47, -58, -50, -303, -338, -224, -229, -99, -12, 60, 145, 160, 193, 
121, 15, 49, 46, 2, 16, 103, 65, 79, 50, 125, 342, 235, 48, 36, 80, 
25, 74, 192, 159, 81, 227, 123, 41, 57, -57, -17, 61, 77, 21, -59, -124, 
-634, -517, -421, -345, -288, -145, 107, 220, 380, 466, 317, 336, 573, 579, 563, 559, 
582, 598, 747, 712, 358, -119, -505, -428, -423, -495, -392, -247, -56, 192, -71, -358, 
-341, -143, -114, -49, 67, 301, 453, 420, 397, 538, 764, 780, 887, 1060, 1116, 1160, 
1020, 622, 363, 216, 81, -183, -657, -717, -1015, -1317, -1325, -1278, -1275, -1142, -933, -630, 
-403, -176, 127, 481, 811, 782, 578, 858, 1279, 1349, 1257, 1263, 1270, 1029, 451, 54, 
-80, -477, -627, -850, -1156, -1300, -1355, -1232, -1058, -949, -626, -283, 33, 188, 274, 150, 
117, 290, 272, 413, 699, 669, 594, 553, 415, 433, 274, -103, -390, -485, -296, 42, 
-14, -162, -30, 238, 288, 206, -34, -312, -292, -501, -810, -655, -474, -608, -468, -171, 
-428, -532, -637, -530, -227, -14, -12, -294, -647, -838, -795, -540, -99, -83, -223, -42, 
-59, -55, 259, 376, 641, 1023, 907, 701, 771, 704, 489, 274, 11, -29, 165, 142, 
-218, -569, -792, -628, -331, -211, -86, 29, 6, 29, -10, -20, -25, 153, 466, 581, 
745, 920, 1277, 1345, 1136, 1047, 1047, 711, 450, 372, 216, 217, 64, -431, -623, -547, 
-443, -402, -439, -299, -339, -424, -339, -185, -235, -179, 79, 623, 567, 321, 440, 449, 
622, 864, 542, 328, 352, 91, -9, -348, -583, -789, -900, -862, -810, -731, -697, -496, 
-276, -330, -422, -279, -279, -219, 270, 358, 35, 37, 244, 345, 315, 28, -249, -386, 
-244, -44, -191, -327, -223, -269, -60, 25, -51, 55, -56, -140, -35, 41, 108, 124, 
133, -60, -244, -199, -45, 177, 139, -58, -80, 50, 210, 174, 134, 113, -133, -119, 
227, 572, 631, 600, 511, 605, 885, 685, 343, 379, 292, 269, 223, -29, -37, 169, 
-1, -201, -421, -690, -598, -607, -387, -166, -217, -479, -418, -294, -102, -144, 95, 830, 
937, 1209, 1869, 1723, 1123, 1129, 1012, 766, 396, 168, -27, -279, -590, -1020, -1197, -1010, 
-762, -778, -889, -915, -876, -444, -84, -148, -74, 27, 406, 740, 782, 700, 497, 397, 
684, 780, 482, 342, 46, -73, -24, -105, -486, -857, -775, -652, -555, -338, -7, 78, 
139, 187, 218, 184, 87, 148, 499, 573, 345, 311, 98, -239, -241, -88, -40, -67, 
-140, 156, 592, 416, 13, 0, -222, -341, -180, -269, -446, -349, -279, -296, -169, 291, 
10, 64, 36, 144, 244, 113, -234, -270, -86, 264, 449, 463, 259, 58, 97, 93, 
263, 452, 427, 114, -4, -189, -128, -103, -235, -165, -103, 34, 183, 99, 127, -27, 
-236, -188, -45, -97, -194, -291, 4, 231, 253, 273, 286, 301, 331, 172, -69, -134, 
-123, -99, -189, -223, -382, -378, -182, -116, -22, 30, -83, -107, -141, -269, -314, -207, 
-62, -128, -244, -72, 78, -44, -139, -29, 58, 257, 301, 139, -82, -124, -142, -153, 
-120, -26, -28, -117, -246, -352, -235, -29, 10, -19, -98, -184, -136, -99, 67, 56, 
36, 62, -19, -50, 44, 37, 28, 265, 326, 190, 36, -13, -43, -65, -43, -83, 
-105, -42, -128, -137, -151, -114, 19, 145, 158, 51, -101, -60, 157, 238, 168, 227, 
59, -27, -93, -79, 49, -33, 111, 76, -72, -14, 127, 182, -22, -495, -384, -203, 
-155, -118, -221, -16, 319, 93, -122, -112, -109, -42, -136, -164, -166, 416, 848, 603, 
421, 391, 285, 153, -31, -74, -186, -212, -205, -226, -11, 20, -97, -48, 14, 42, 
-13, -193, -455, -448, -146, -281, -504, -492, -500, -70, 295, 127, 22, 51, 273, 331, 
126, 14, 53, -5, 64, 309, 141, -266, -7, 179, -143, -338, -609, -506, -38, -64, 
-215, -318, -437, -74, -21, -21, 65, -202, -176, 87, 281, 515, 157, -250, -43, 135, 
259, -101, -310, -44, -23, -8, -181, -390, -208, 35, 162, 159, 6, 2, 127, 282, 
300, 27, -49, 217, 229, -165, -401, -22, -14, -269, -461, -385, -117, 51, -127, -334, 
-29, -93, -25, 35, 272, 358, 66, -155, -180, -280, -295, -253, -150, 22, 265, 283, 
253, 329, 299, 344, 57, -30, 142, 159, 280, 509, 559, 477, 299, 89, -21, -139, 
-91, -89, -93, -209, -318, -189, -77, -93, 55, 185, 92, 67, 32, 84, 170, 81, 
129, 260, 456, 724, 784, 766, 923, 869, 693, 553, 277, 24, -241, -373, -444, -586, 
-526, -432, -250, -106, 99, 9, -203, -247, -220, -176, -68, -4, 67, 243, 414, 516, 
470, 259, 147, 115, -58, -132, -91, -41, -147, -212, -427, -393, -153, -41, 71, -57, 
-177, -348, -449, -290, -100, 194, 316, 140, 53, -99, -220, 16, 112, -61, -115, -284, 
-259, -196, -113, -154, -188, -168, 64, 119, 200, 346, 363, 382, 375, 322, 202, 206, 
-194, -141, -141, -141, -105, -89, -52, 9, 37, 85, -16, 11, 58, 65, 64, 57, 
87, 50, 68, 82, 14, -110, -197, -180, -117, -150, -143, -101, -47, 11, -76, -104, 
-128, -93, -44, -58, -54, -11, -7, 42, 28, 59, 67, 122, 86, 190, 182, 204, 
208, 85, 41, 29, -1, -54, -165, -224, -217, -351, -347, -338, -308, -238, -199, -200, 
-101, -64, -29, 80, 120, 120, 89, 151, 227, 243, 253, 270, 250, 183, 56, -30, 
-33, -92, -92, -183, -266, -282, -355, -319, -248, -214, -183, -110, -12, -15, 26, 2, 
-8, 54, -9, 77, 129, 114, 136, 130, 73, 114, 49, -1, -91, -122, -29, 24, 
28, -18, 32, 64, 58, 42, -34, -107, -53, -164, -199, -155, -114, -153, -98, -41, 
-150, -255, -291, -226, -64, 27, -21, -154, -274, -400, -330, -215, -46, -91, -67, -6, 
-28, -45, 127, 157, 289, 434, 426, 349, 358, 315, 211, 139, -4, -39, 112, 43, 
-78, -311, -289, -246, -159, -9, -8, 73, 35, 27, -11, -73, -58, 2, 33, 114, 
204, 349, 492, 556, 437, 415, 463, 291, 197, 142, 66, 95, 24, -228, -299, -204, 
-131, -164, -156, -142, -57, -170, -144, -36, -7, 9, 72, 332, 267, 134, 204, 165, 
224, 333, 246, 153, 126, 54, 25, -42, -214, -324, -312, -242, -224, -295, -253, -164, 
-61, -130, -135, -37, -143, -70, 165, 253, 54, 76, 134, 215, 153, -18, -130, -135, 
-128, 60, -62, -98, -42, -77, 114, 112, 85, 122, 67, -47, 54, 31, 150, 217, 
-56, -114, -236, -258, -133, -51, -81, -166, -193, -129, 8, 22, -21, -15, -185, -182, 
-102, 35, 122, 112, 81, 125, 255, 161, 7, -5, 10, 45, 64, -57, -65, -12, 
-55, -138, -255, -365, -322, -253, -139, -66, -126, -204, -271, -144, -101, -108, -17, 263, 
328, 470, 741, 644, 368, 389, 342, 257, 107, 59, -20, -157, -294, -459, -552, -551, 
-364, -388, -421, -467, -384, -189, -63, -135, -104, 18, 93, 322, 281, 214, 112, 96, 
232, 261, 186, 139, 13, -50, -43, -60, -249, -401, -391, -268, -222, -148, 45, 52, 
102, 84, 38, 56, 63, 35, 251, 301, 122, 135, 4, -187, -171, -82, -94, -129, 
-146, 66, 211, 165, 3, -34, -106, -143, -73, -114, -226, -205, -212, -166, -102, 56, 
-69, -131, -71, 357, 402, 346, 464, 159, -25, -52, -271, -286, -43, 107, 241, 356, 
153, -47, -97, -304, -576, -392, -15, 99, 187, 186, 210, 386, 559, 515, 472, 447, 
400, 340, 447, 618, 649, 591, 422, 22, -335, -687, -829, -787, -709, -599, -373, -79, 
199, 463, 453, 589, 700, 973, 938, 662, 587, 489, 258, 143, 385, 533, 456, 375, 
268, -42, -438, -642, -712, -957, -1127, -1061, -778, -454, -189, 100, 148, 235, 374, 340, 
410, 302, 442, 526, 298, 163, 51, -186, -236, -327, -495, -400, -141, 264, 50, -282, 
-253, -108, 46, 256, 404, 711, 698, 271, -224, -381, -69, 66, 160, 210, 170, 189, 
-15, -396, -549, -364, -44, 54, -90, 49, 216, 352, 273, 20, 26, 74, 133, -20, 
-388, -256, -175, 48, 315, 258, 154, 283, 188, 51, 174, 253, 641, 694, 483, 518, 
340, 198, 135, -59, -134, -104, -89, -26, -13, 16, 118, 224, 339, 270, 71, 68, 
187, 206, 245, 334, 400, 115, -37, -188, -140, 215, 281, 148, 120, -210, -538, -850, 
-869, -818, -1004, -1022, -934, -899, -309, 150, 132, 239, 62, -192, -241, -59, 192, 548, 
714, 747, 859, 896, 773, 487, 380, 266, -8, -145, -166, -112, -194, -375, -226, -92, 
-150, 19, 238, 182, 44, -23, -214, -260, -344, -265, 2, 40, 237, 263, -61, -276, 
-361, -132, -3, -257, -559, -730, -621, -567, -431, -29, 27, -185, -156, -22, 120, 53, 
30, 13, -114, 178, 278, 265, 101, -201, -64, -44, -264, -178, -17, -353, -213, 311, 
86, -72, -271, -159, 46, 165, 240, 355, 226, 269, 160, -14, 189, -36, -458, -736, 
-672, -280, -91, -157, -157, -157, -156, -190, -246, -50, -63, -80, 272, 482, 539, 325, 
26, 224, 464, 490, 364, 259, 461, 830, 813, 785, 926, 542, 127, -2, -264, -448, 
-596, -608, -575, -445, -487, -633, -481, -77, 188, 435, 404, 229, 154, 109, 140, 300, 
625, 867, 875, 657, 350, 251, 209, -63, -236, -432, -802, -585, 14, -28, -395, -409, 
-194, -75, -159, -275, -166, -52, -66, 30, 57, 166, 461, 575, 474, 405, 333, 337, 
211, 196, 149, -91, 10, 164, 35, 482, 855, 888, 562, 112, 189, 491, 291, 162, 
235, 39, 54, -122, -280, -236, -3, 59, -175, -444, -147, -25, -306, -353, -261, -77, 
160, 224, 39, 79, 249, 195, 207, 204, 206, 376, 386, 227, 37, -198, -322, -319, 
-174, -164, -104, -117, -97, -7, 61, -95, -83, 5, -84, -108, -167, -268, -236, -175, 
-329, -436, -260, -184, -403, -448, -341, -243, -101, -28, -80, -313, -473, -367, -396, -369, 
-294, -264, -197, -47, -49, -50, -4, 110, 221, 196, -64, -31, 158, 91, -131, -240, 
-121, 37, -162, -243, -179, -205, -151, -151, -68, -16, -70, -234, -296, -188, -80, -22, 
195, 197, -64, -245, -246, -208, -73, -31, -234, -348, -268, -240, -178, -243, -495, -403, 
-406, -458, -407, -305, -237, -332, -184, -76, -78, -90, -93, -58, 119, 96, 59, -165, 
-291, -164, -23, 34, 10, -29, 140, 437, 383, 204, 13, 83, 351, 435, 315, 244, 
-111, -67, 163, 85, -100, -42, -204, -393, -201, -199, -258, -230, -4, 59, -13, 22, 
-55, -4, 69, 66, -154, -257, -29, 89, 54, 39, -196, -222, -270, -130, -94, -216, 
-201, -100, -126, -290, -253, 65, 92, -297, -448, -82, 282, 166, -194, -247, -214, -122, 
148, 333, 454, 139, 59, 135, 349, 268, -41, 84, 191, -189, -313, -346, -166, -154, 
-439, -354, -445, -468, -310, -126, 108, 158, 58, 60, 189, 410, 399, 163, 130, 248, 
261, -107, -259, -89, 97, -20, -143, -41, 176, 120, -140, -87, -187, -201, -116, -56, 
-248, -310, -170, -14, 116, 352, 369, 96, -199, -281, -200, -200, -143, -92, -18, 161, 
330, 158, 176, 234, 370, 321, 277, 159, 103, 104, 227, 36, -252, -28, 162, 74, 
32, -111, -174, -48, -60, -243, -251, -62, 50, 193, 393, 260, 75, -123, -21, -101, 
-346, -412, -443, -247, -211, -157, 1, -96, -291, -348, -440, -382, -299, -37, 155, 74, 
-80, -2, 135, 248, 213, 361, 365, 266, 210, 72, 86, 224, -103, -136, 38, 109, 
81, -389, -640, -496, -511, -640, -830, -521, 69, 453, 595, 439, 115, 177, 272, 301, 
466, 412, 455, 483, 395, 254, -15, -107, 13, 54, 81, -140, -245, -195, -299, -460, 
-408, -248, -123, -109, -112, -234, -134, 49, -277, -397, -332, -150, 300, 548, 456, 242, 
-51, 158, 310, 5, -249, -470, -569, -276, -91, -35, 200, 174, -275, -329, -251, -163, 
48, 121, 114, 103, 36, -95, -234, -187, -10, -96, -375, -467, -520, -494, -560, -384, 
-29, 14, -13, 96, 85, 43, 112, 66, -3, 35, -24, -36, 12, 14, 81, 101, 
37, 28, 4, 7, -37, -13, 48, 22, 91, 96, 24, 109, 95, 117, 89, 124, 
107, 53, 90, 141, 147, 129, 115, 53, -46, -91, -82, -54, -55, -64, -19, 18, 
61, 101, 117, 159, 144, 243, 198, 143, 159, 99, 71, 42, 60, 149, 132, 118, 
64, 41, -42, -76, -97, -102, -111, -115, -77, -22, 6, 75, 105, 67, 73, 140, 
81, 108, 150, 142, 116, 70, 54, 41, 5, 18, -66, 3, 18, 106, 64, -29, 
-28, 49, 77, 45, 110, 176, 166, 117, 48, -45, 11, 59, 99, 119, 72, 91, 
62, -3, -21, -8, 37, 46, 35, 30, 87, 126, 69, 31, 69, 60, 89, 37, 
-100, -15, 32, 177, 373, 317, 261, 275, 238, 150, 163, 233, 457, 537, 472, 480, 
364, 215, 222, 98, 38, 120, 112, 173, 203, 242, 326, 347, 416, 359, 234, 203, 
337, 320, 310, 362, 384, 235, 121, 54, 95, 236, 276, 261, 233, 84, -127, -204, 
-254, -273, -375, -373, -320, -252, 95, 341, 322, 343, 287, 121, 83, 72, 261, 470, 
537, 563, 656, 737, 641, 488, 378, 313, 259, 88, 82, 74, 55, -9, 29, 130, 
158, 220, 326, 269, 256, 234, 163, 100, 10, 82, 174, 190, 309, 333, 162, 51, 
38, 187, 222, 77, -105, -184, -124, -113, -23, 168, 202, 88, 135, 201, 250, 173, 
184, 171, 155, 271, 351, 364, 252, 135, 146, 142, -23, 98, 173, 9, -1, 359, 
-18, -99, -263, -157, -19, -5, 31, 105, 17, 64, -7, -29, 69, -32, -263, -387, 
-341, -101, -70, -80, -95, -82, -95, -116, -85, -18, 14, -16, 165, 230, 264, 130, 
36, 127, 298, 231, 158, 150, 207, 424, 425, 421, 431, 222, 106, -51, -134, -154, 
-263, -308, -262, -177, -155, -276, -181, -24, 129, 245, 161, 115, 106, 42, 93, 193, 
375, 458, 423, 322, 248, 169, 138, 60, -72, -121, -301, -238, 53, 65, -108, -157, 
-58, 15, -5, -97, -49, -40, 15, 60, 89, 74, 263, 288, 234, 243, 187, 182, 
168, 119, 102, 63, 50, 78, 72, 208, 374, 364, 275, 58, 117, 236, 110, 91, 
85, 57, 98, -21, -78, -55, 87, 72, 5, -115, 14, 47, -73, -43, -30, 56, 
79, 123, 110, 76, 56, 64, 70, 33, 50, 148, 49, 105, 149, 188, 146, 82, 
40, 98, 58, 75, 95, 31, 101, 136, 53, 37, 23, 32, 35, 94, 59, 95, 
52, 39, 26, 89, 170, 48, 1, 44, 49, 59, 75, 107, 113, 88, 88, 122, 
85, 94, 106, 77, -63, 27, 32, 3, -48, -75, -47, -40, 17, 16, 19, -29, 
-41, -63, -58, -88, -18, 4, 28, 36, 3, -26, -14, 67, 48, -29, -93, -131, 
-196, -137, -46, -125, -145, -132, -123, -46, -2, -78, -233, -92, -104, -76, -28, -69, 
-142, -16, 6, 27, -33, -26, -48, -184, -23, -204, -156, -158, -105, -166, -117, -33, 
39, 43, 26, 21, -56, 11, -23, -70, -99, -54, -88, -103, -18, -104, -46, -26, 
-52, -25, -41, -31, -115, -114, -12, -3, 1, 38, 24, -96, -140, -117, -116, -87, 
-63, -23, -39, -19, -41, -118, -51, -38, -37, -57, -8, -15, -17, 2, -31, 2, 
-55, 21, -4, 25, 4, -45, -5, -39, -116, -165, -120, -48, -56, -100, -62, -49, 
-62, -40, -15, -31, -29, -68, -43, -35, -60, -25, -26, 41, 32, -5, -54, -108, 
-107, -136, -113, -94, -41, 24, 35, 49, 92, 64, 4, -4, -53, 39, -22, -65, 
-73, -30, -38, 50, 16, 21, 10, 33, 38, 83, 80, 9, 13, 1, -21, 4, 
8, 32, -59, -14, 1, -10, 8, -45, -71, -33, -44, -19, -56, -143, -11, 0, 
-31, 6, -18, -21, -2, -80, 5, 69, 73, 70, 132, 139, 96, 34, -13, 16, 
-39, -68, -142, -130, -5, -27, -5, -18, -46, -3, -68, -89, -99, -48, -39, -58, 
-90, -38, -105, -60, -68, -58, -90, -47, -88, -103, -106, -114, -104, -88, -100, -49, 
-51, -95, -74, -42, -66, -78, -26, -32, -8, 36, 69, -48, 3, 3, -33, -91, 
-126, -54, -35, -48, -29, 23, -34, -58, -49, 1, 14, -4, 66, 82, 142, 152, 
125, 194, 189, 131, 168, 91, 4, 101, 69, 32, 156, 97, 23, 53, 35, 34, 
62, 87, 135, 182, 228, 180, 216, 116, 77, 32, 55, 48, 100, 22, 16, 60, 
159, 21, -23, 30, 86, 71, 8, 45, 60, 58, 68, 79, 59, 57, 3, 2, 
62, 111, 84, 54, -1, 11, 0, -7, 87, 73, 75, 8, -45, -28, -34, -28, 
152, 195, 191, 123, 120, 365, 206, 124, 127, 102, 94, 96, 124, 140, 141, 85, 
81, 99, 58, 76, 46, 24, 80, 126, 126, 76, 13, 86, 159, 84, 49, 97, 
80, 1, 10, -29, -63, -6, -12, -22, -8, -11, -13, 10, 57, 26, -16, -1, 
1, 6, 85, 58, 78, 96, 92, 84, 56, 38, 114, 126, 85, 26, -33, 60, 
69, 39, 22, 48, 55, 64, 15, 54, 33, 15, 2, 22, 6, 16, -57, -69, 
-15, 25, -17, 12, 32, 33, 64, 144, 86, 38, 31, 66, 33, -20, 6, -74, 
-49, -147, 14, 7, -20, -7, -57, -24, 19, -7, -4, 15, 30, 9, -47, -10, 
-13, 21, 19, -5, 37, 124, 68, 57, 88, 35, 39, 55, 218, 138, 104, 58, 
-94, -27, -8, -16, -23, -23, -12, -2, -89, -24, -45, 8, -81, 10, -17, -41, 
-119, -104, -172, -126, -220, -276, -217, -156, -180, -19, -135, -65, -29, -130, -10, -32, 
-68, -46, -76, 1, 104, 76, 89, 42, -17, -48, -85, -75, 0, -36, -30, 0, 
-11, 46, 12, 25, 80, 81, 123, 181, 156, 97, 145, 133, 82, 114, 58, 100, 
86, 83, 115, 55, 17, 38, -25, -9, -42, 25, 112, 152, 65, 75, 41, -4, 
30, -51, -102, -135, -77, -78, -90, -82, -40, -48, -111, -69, -203, -46, -25, 23, 
15, 65, 29, 79, 57, 101, 100, -32, -18, 81, 22, 33, 22, 60, 43, 7, 
10, -54, 4, -5, -28, 20, -65, -36, -70, -58, -36, -72, -6, 52, 58, 38, 
-37, 47, 68, -14, -41, -72, 14, 44, 93, 81, 50, 85, 67, 48, 24, 3, 
6, 39, 3, -7, 42, -38, -8, 21, -41, 4, -62, 2, 18, 50, 82, -71, 
-66, -21, 6, -29, -31, -48, -71, -70, -83, -55, -70, -148, -132, -103, -105, -121, 
-69, -77, -104, -96, 29, 17, 8, 47, -7, 13, 20, -10, -67, 0, 0, 1, 
-36, -90, -52, -30, -93, -39, -125, 0, 54, 76, 68, 49, -43, -13, -26, -11, 
3, -17, -37, -13, -25, -6, 16, 19, -23, -23, 33, 63, 43, 10, 28, 68, 
26, -4, 45, -15, -87, -41, -31, -76, -98, -60, -127, -82, -125, -145, -131, -36, 
-20, 16, 0, 26, -12, 11, 45, 58, 54, 89, 48, 40, 57, 32, 43, -20, 
-275, -318, -259, -291, -264, -306, -294, -310, -309, -285, -314, -282, -303, -289, -272, -269, 
-265, -270, -331, -286, -319, -294, -256, -262, -320, -288, -291, -303, -341, -302, -292, -344, 
-285, -247, -277, -320, -294, -313, -292, -253, -278, -305, -281, -295, -283, -286, -316, -322, 
-302, -315, -321, -311, -293, -273, -275, -309, -289, -291, -330, -269, -308, -248, -308, -269, 
-295, -295, -280, -324, -296, -336, -297, -305, -340, -328, -283, -277, -259, -257, -253, -303, 
-324, -306, -261, -251, -278, -331, -297, -283, -283, -325, -311, -269, -308, -318, -275, -319, 
-285, -340, -291, -326, -343, -295, -263, -316, -286, -290, -318, -302, -305, -329, -314, -325, 
-262, -299, -320, -295, -285, -304, -288, -253, -285, -324, -315, -304, -314, -290, -301, -306, 
-177, -133, -175, -127, -167, -179, -139, -148, -171, -148, -158, -147, -197, -222, -192, -186, 
-161, -222, -232, -206, -201, -173, -144, -197, -146, -170, -165, -166, -166, -159, -173, -131, 
-136, -143, -140, -139, -148, -177, -180, -156, -192, -155, -252, -216, -202, -244, -238, -185, 
-189, -208, -196, -223, -215, -197, -168, -195, -170, -161, -188, -182, -130, -121, -131, -148, 
-189, -173, -162, -201, -202, -152, -184, -157, -136, -199, -199, -209, -199, -154, -183, -193, 
-173, -237, -214, -152, -183, -152, -155, -128, -133, -125, -177, -123, -178, -175, -186, -189, 
-168, -136, -168, -167, -204, -186, -190, -167, -185, -218, -179, -184, -230, -171, -193, -155, 
-169, -185, -176, -164, -169, -211, -153, -148, -134, -118, -188, -176, -202, -182, -175, -198, 
175, 203, 176, 125, 156, 205, 165, 184, 181, 127, 186, 184, 183, 156, 159, 172, 
174, 127, 169, 112, 185, 168, 123, 110, 165, 153, 122, 129, 186, 159, 170, 160, 
180, 143, 189, 184, 129, 166, 193, 201, 190, 146, 173, 144, 164, 137, 188, 138, 
153, 134, 140, 166, 148, 134, 138, 143, 162, 202, 190, 152, 184, 134, 181, 137, 
155, 193, 154, 175, 165, 138, 153, 148, 153, 162, 189, 129, 132, 151, 146, 112, 
137, 151, 149, 142, 139, 189, 180, 148, 157, 140, 145, 209, 131, 121, 167, 132, 
191, 151, 159, 126, 164, 180, 213, 185, 130, 120, 152, 164, 187, 165, 194, 119, 
161, 128, 136, 132, 155, 179, 182, 162, 153, 136, 153, 137, 125, 133, 181, 138, 
-139, -111, -155, -168, -173, -137, -152, -222, -248, -227, -203, -207, -186, -206, -204, -188, 
-203, -171, -98, -58, -66, -91, -57, -91, -43, -44, -52, -60, -95, -15, -31, -24, 
-68, -75, -37, -99, -116, -90, -122, -79, -105, -103, -161, -44, -30, -60, 0, 40, 
19, 64, 11, -50, -85, -3, 77, 25, 8, 1, 21, 51, 122, 91, 1, 8, 
-59, 0, 16, 4, 47, 107, 40, 123, 49, 48, 110, 141, 178, 107, 99, 97, 
38, -57, -39, -89, -58, 57, 27, 30, -23, 7, 13, 0, -25, -45, -43, 17, 
-24, -22, -38, 27, -33, -4, -24, -41, 2, 54, -2, -34, 52, 3, -5, -48, 
-2, 5, 40, 71, 25, 51, -25, -41, -56, 2, 10, 4, 39, 34, 1, -48, 
139, 89, 46, -15, 75, 83, 96, 169, 164, 164, 140, 114, 85, 56, 52, 63, 
-11, 14, 36, 54, 42, 27, -48, -36, -48, -132, -69, -88, -58, -134, -93, -116, 
-45, 7, -32, -24, -15, -183, -135, -160, -90, -67, -127, -57, -32, -24, 0, -15, 
-81, -125, -89, -50, -78, -146, -52, -92, -125, -74, -103, -39, -15, 51, -13, -53, 
-59, 12, -46, -52, -83, -22, 6, -26, 19, 28, 106, 54, 81, 95, 85, 135, 
68, 39, 38, 79, 87, 115, 84, 19, -28, -11, -3, -34, 27, 5, 3, 26, 
45, 45, 92, 184, 57, -1, -71, -67, -2, -90, -81, -52, -50, 21, 27, 23, 
-7, -7, 23, 48, 48, 9, -27, 80, 86, 52, 83, 76, 54, 102, 32, -55, 
268, 323, 288, 202, 193, 217, 240, 197, 230, 235, 170, 132, 140, 180, 132, 137, 
104, 136, 156, 173, 143, 122, 62, 125, 46, 84, 130, 74, 65, 98, 156, 152, 
188, 135, 222, 165, 89, 87, 127, 74, 126, 89, 185, 200, 192, 294, 181, 60, 
-19, 37, 29, 36, 6, 50, 8, 22, -48, 6, 68, 107, -34, -82, -91, 33, 
-102, -134, -79, -70, -86, -112, -160, -129, -63, 1, -15, -140, -188, -139, -75, -81, 
-37, 78, 1, -115, -80, -48, -69, -69, -44, 1, 25, -5, -99, -95, -80, -82, 
-58, -89, -52, -12, 22, 49, 67, 1, 20, 4, 55, 45, 42, 35, 18, -8, 
38, -1, -16, -27, 49, -21, -29, -57, -65, -59, -30, -29, -24, -93, -92, -77, 
77, 56, 74, 46, 52, 65, 105, 101, 121, 67, 117, 52, 102, 45, 39, 78, 
88, 152, 96, 80, 28, 10, 3, 54, 54, 39, 48, 106, 114, 101, 144, 165, 
195, 143, 140, 86, 137, 155, 170, 175, 179, 205, 231, 135, 128, 155, 125, 84, 
69, 40, -5, 84, 55, 34, 76, 67, 137, 321, 439, 416, 360, 225, 91, 157, 
117, 77, 191, 244, 195, 225, 132, 128, 117, 164, 149, 89, 96, 120, 150, 46, 
35, 73, 19, 21, 22, -3, -3, -4, -21, 50, 34, 29, 50, 75, 122, 137, 
91, 9, -17, 0, 7, 0, -18, -82, 5, 5, 17, 13, 47, -5, 13, 30, 
53, 71, 50, 69, 33, 78, 38, 55, 69, -7, 103, 167, 240, 184, 86, 103, 
187, 116, 133, 126, 108, 165, 157, 110, 56, 27, 62, 103, 147, 216, 148, -21, 
-183, -261, -257, -168, -158, -151, -127, 6, 37, 92, 61, 41, 20, -38, -40, -82, 
-59, 53, 66, 109, 142, 119, 86, 61, 63, -69, -78, -114, -204, -123, -165, -111, 
-25, -33, -130, -158, -245, -164, -200, -87, -65, -83, -73, -115, -161, -49, 42, 88, 
45, 49, -66, -54, -71, -19, 19, 66, 40, 28, 52, 48, 105, 198, 173, 106, 
31, 0, -12, -92, -94, -5, -11, -49, 17, 4, -48, -37, -136, -167, -102, -49, 
50, 87, 45, -5, 43, 33, 46, -59, -86, -37, -110, -123, -101, -9, -17, -173, 
-110, -134, -115, -156, -169, -103, -61, -45, -87, -98, -49, -91, -63, 8, 107, 153, 
-90, -32, 36, -40, -20, -7, -75, -3, -54, 5, 3, -5, 66, 44, 55, 76, 
51, 126, 122, 129, 133, 54, 152, 234, 191, 134, 97, 26, 23, 71, 53, 21, 
66, 51, 41, 53, 73, 28, 34, 46, 40, 44, 68, 119, 132, 75, 61, 11, 
-4, -24, -17, -51, 23, 46, 19, 25, 118, 137, 89, 139, 51, 140, 97, 63, 
122, 49, 41, 67, 21, 43, 34, 62, 81, -25, 2, -67, -101, -23, 23, -4, 
27, -16, 57, 5, 49, 53, 89, 61, 57, 79, 39, 18, 6, 25, 60, 26, 
-22, -42, -29, -27, -18, 42, -3, -19, -60, 35, 18, 40, 50, 120, 142, 15, 
64, 49, 7, 61, 30, 26, 67, 54, 49, 53, 93, 84, 141, 246, 218, 60, 
-323, -356, -356, -343, -333, -388, -377, -346, -378, -363, -324, -354, -296, -332, -290, -295, 
-349, -309, -371, -334, -375, -350, -386, -396, -340, -328, -384, -381, -385, -369, -387, -339, 
-348, -343, -313, -359, -325, -351, -293, -278, -282, -346, -340, -367, -356, -358, -373, -370, 
-390, -341, -385, -328, -322, -318, -359, -381, -380, -379, -325, -343, -364, -347, -313, -349, 
-300, -268, -278, -334, -301, -344, -365, -343, -360, -395, -387, -379, -324, -361, -343, -371, 
-368, -315, -345, -373, -359, -350, -373, -364, -344, -339, -342, -317, -350, -309, -360, -352, 
-334, -347, -387, -370, -337, -370, -350, -398, -361, -371, -403, -357, -389, -397, -384, -344, 
-373, -353, -330, -353, -323, -352, -363, -351, -339, -351, -399, -351, -377, -342, -333, -361, 
143, 138, 132, 145, 148, 122, 150, 141, 150, 169, 155, 133, 154, 144, 120, 124, 
139, 117, 166, 164, 179, 155, 132, 165, 157, 124, 134, 124, 141, 159, 154, 144, 
106, 139, 141, 157, 112, 102, 136, 140, 98, 132, 98, 101, 155, 144, 89, 93, 
103, 125, 119, 142, 141, 121, 165, 123, 100, 128, 70, 135, 155, 159, 147, 145, 
147, 145, 130, 128, 138, 96, 110, 110, 103, 156, 118, 144, 108, 124, 105, 164, 
117, 112, 112, 118, 127, 133, 105, 140, 132, 155, 128, 147, 165, 112, 130, 138, 
131, 153, 102, 136, 157, 100, 117, 98, 97, 97, 100, 105, 158, 112, 118, 151, 
123, 113, 174, 125, 125, 131, 117, 105, 113, 117, 170, 118, 166, 151, 124, 100, 
199, 266, 262, 232, 211, 241, 250, 210, 280, 258, 244, 182, 232, 183, 220, 179, 
224, 211, 201, 187, 182, 176, 195, 188, 218, 192, 209, 234, 236, 215, 205, 220, 
199, 250, 247, 222, 213, 266, 238, 239, 239, 220, 243, 217, 252, 242, 265, 229, 
208, 272, 263, 258, 234, 239, 251, 230, 217, 263, 233, 249, 228, 260, 221, 182, 
227, 191, 185, 202, 182, 179, 165, 223, 176, 197, 192, 217, 219, 221, 233, 231, 
181, 237, 251, 227, 250, 255, 212, 213, 259, 254, 219, 247, 267, 207, 209, 199, 
197, 194, 189, 225, 232, 255, 248, 262, 209, 217, 245, 214, 219, 267, 225, 263, 
211, 262, 230, 225, 241, 260, 229, 225, 166, 185, 174, 171, 191, 207, 205, 211, 
-133, -219, -222, -157, -58, -53, -92, -63, -91, -116, -116, -59, -135, -146, -167, -152, 
-256, -308, -237, -279, -252, -221, -95, -92, -93, -85, -49, -57, 7, 48, 75, 32, 
8, 18, -33, 16, -13, -11, -66, -96, -117, -139, -170, -184, -4, -177, -215, -121, 
67, 46, 11, -43, -40, 35, 85, 86, 100, -3, -28, -27, -24, -85, -217, -156, 
-147, -133, -148, -174, -158, -228, -135, -123, -316, -151, -71, -90, -5, 152, 110, 159, 
108, 70, 140, 144, 108, 63, -114, -85, -112, -94, -122, -52, -30, -14, 5, 73, 
106, 132, -7, -73, -165, -76, -4, 60, 76, 31, -68, -69, -80, 13, 4, 90, 
7, -71, -88, -51, -114, -125, -82, -100, -157, -210, -196, -210, -177, -73, -73, -36, 
357, 168, 133, 243, 183, 185, 174, 59, 22, 63, 63, 42, 71, 10, -54, -24, 
-5, 38, 68, 123, 138, 190, -9, 17, -47, 76, 119, 30, 94, -2, -25, -29, 
-67, -22, -45, -67, -70, -13, 139, 178, 208, 144, 132, 164, 261, 167, 172, 150, 
94, 156, 122, 92, -78, -195, -327, -225, -171, -143, -97, -85, -44, -49, -25, -50, 
-92, -76, -76, -33, -49, 3, 5, 89, 126, 103, 94, 0, -49, 1, 81, 34, 
-94, -40, -97, -131, -76, -32, -8, -17, -3, -29, -24, 15, -31, 11, -77, -9, 
52, 18, -3, 24, -44, -211, -235, -193, -160, -68, -112, -17, -127, -204, -243, -176, 
-224, -238, -291, -276, -229, -191, -201, -171, -127, -225, -140, 36, 40, 8, 71, 82, 
283, 320, 287, 201, 72, 94, 153, 239, 262, 259, 245, 282, 177, 168, 187, 190, 
199, 264, 205, 191, 237, 265, 305, 266, 283, 264, 252, 144, 165, 138, 225, 262, 
257, 202, 143, 69, 112, 52, 18, 43, 71, 60, 5, 99, 286, 305, 305, 263, 
286, 233, 158, 128, 143, -14, -48, 8, -17, 38, -6, -67, -131, -105, -32, 101, 
161, 52, -63, -62, 51, 145, 148, 81, 97, 92, 92, -1, -66, -94, -110, -216, 
-217, -145, -144, -195, -270, -227, -152, -215, -170, -152, -148, -110, 71, 82, 145, 125, 
127, 69, 20, -50, -39, 51, 14, -14, 51, 35, 123, 104, 125, -60, -68, -70, 
-86, -72, -103, -93, -43, -91, -23, 67, 88, 98, 104, 64, 33, 66, 21, -5, 
-14, 45, 81, 72, -7, -4, -14, -15, 76, 140, 223, 230, 190, 180, 146, 155, 
98, 139, 68, 10, 50, 22, -12, 15, 19, -20, 2, -17, -45, -69, -77, -76, 
-87, -53, -44, -3, 54, 26, 2, 96, 84, 72, 162, 119, 113, 0, 30, 39, 
98, 62, -27, 49, 55, 194, 234, 261, 277, 227, 224, 183, 192, 232, 301, 357, 
286, 286, 216, 131, 54, 53, 24, -5, 18, 47, 81, 27, 41, 17, 2, -74, 
-74, -46, -85, -79, -42, -12, -45, -81, -55, -125, -73, 139, 37, -21, 2, -56, 
-23, -110, -98, -91, -84, -64, -35, -30, 28, 40, -60, -101, -75, -24, 15, -30, 
-49, 13, 5, 56, 22, 37, -28, 47, -64, -76, 48, 66, 16, 39, 26, 69, 
188, -90, -87, -56, 109, 157, 104, 57, 36, 34, -36, -7, 8, -77, 110, 93, 
79, 41, -30, -18, -73, -91, -49, -87, -179, -137, -202, -174, -135, -225, -233, -195, 
-214, -230, -235, -160, -41, 50, -19, -105, -91, -131, -110, -14, 13, -47, -37, -50, 
-45, -60, -7, -92, -256, -213, -143, -5, -6, 5, -155, -156, -208, -95, -19, 7, 
18, 15, 28, 82, 38, 81, 85, 38, -116, -182, -179, -194, -148, -132, -121, -59, 
-138, -161, -201, -178, -126, -5, -4, 30, 34, 81, 70, 87, -5, 13, -227, -224, 
-161, -80, -19, -12, -193, -271, -177, -23, 25, -13, -197, -202, -181, -162, 82, 116, 
84, -21, 67, 65, -13, 6, 83, 93, 138, 17, 81, 25, -84, -122, -131, -65, 
73, 116, 67, 106, 30, 65, 74, 119, 113, 80, 74, 85, 140, 160, 203, 197, 
170, 97, 132, 147, 94, 44, 30, -9, -120, -84, -144, -92, -63, -109, -90, -96, 
-69, -73, -38, -64, -96, -92, -115, -152, -124, -42, 46, 101, 47, 53, 88, 135, 
110, 117, 76, 120, 70, 81, 77, 100, 48, 65, 42, 92, 144, 160, 184, 207, 
117, 75, 60, 36, -10, -44, -90, -132, -107, -58, -59, -116, -120, -106, -90, -75, 
-36, -94, -134, -104, -227, -136, -145, -170, -95, 17, 68, 88, 119, 75, 113, 98, 
141, 155, 139, 167, 67, 114, 43, 107, 83, 104, 73, 103, 136, 119, 136, 101, 
91, 71, 100, 115, 161, 193, 55, 17, -82, -117, -84, -161, -86, -99, -43, -147, 
-169, -202, -178, -146, -152, -127, -119, -183, -124, -169, -174, -159, -152, -177, -182, -147, 
-193, -171, -177, -227, -214, -209, -197, -169, -213, -180, -166, -169, -137, -195, -173, -183, 
-182, -166, -159, -153, -162, -146, -133, -136, -179, -178, -199, -193, -169, -185, -162, -138, 
-152, -175, -190, -153, -164, -170, -183, -170, -178, -203, -206, -158, -201, -208, -196, -149, 
-165, -170, -190, -214, -163, -153, -176, -193, -169, -174, -159, -131, -151, -192, -168, -162, 
-149, -190, -166, -151, -138, -154, -206, -210, -224, -156, -175, -153, -152, -166, -147, -180, 
-148, -135, -220, -195, -186, -210, -149, -142, -171, -203, -215, -175, -146, -140, -168, -138, 
-174, -174, -169, -177, -197, -184, -169, -206, -190, -221, -183, -174, -170, -199, -150, -145, 
148, 86, 95, 162, 96, 144, 123, 129, 106, 98, 133, 134, 99, 137, 103, 91, 
120, 107, 148, 109, 138, 91, 134, 129, 114, 133, 85, 124, 129, 85, 82, 103, 
100, 147, 83, 140, 115, 147, 112, 132, 160, 129, 163, 130, 108, 119, 109, 138, 
148, 149, 145, 99, 96, 98, 91, 105, 107, 96, 142, 114, 81, 119, 126, 99, 
146, 128, 94, 91, 123, 119, 105, 103, 101, 108, 101, 126, 99, 117, 138, 132, 
113, 149, 82, 88, 128, 135, 124, 90, 116, 125, 94, 132, 169, 159, 90, 111, 
93, 97, 112, 85, 156, 114, 77, 107, 125, 121, 135, 144, 114, 113, 81, 93, 
125, 137, 89, 93, 130, 82, 133, 102, 108, 94, 119, 139, 111, 107, 88, 144, 
-118, -97, -129, -171, -133, -172, -168, -150, -158, -162, -118, -108, -173, -143, -131, -138, 
-154, -187, -156, -190, -133, -150, -125, -105, -121, -138, -103, -118, -134, -164, -129, -132, 
-132, -147, -135, -140, -169, -183, -162, -181, -179, -188, -151, -191, -112, -150, -120, -146, 
-156, -135, -169, -153, -172, -142, -182, -121, -157, -122, -144, -181, -175, -161, -187, -161, 
-113, -134, -145, -147, -112, -105, -145, -140, -144, -130, -165, -184, -152, -137, -158, -165, 
-194, -168, -160, -158, -179, -155, -190, -155, -173, -139, -187, -144, -132, -102, -163, -139, 
-162, -160, -107, -174, -175, -163, -169, -123, -143, -159, -114, -107, -133, -177, -135, -179, 
-161, -116, -172, -141, -129, -154, -179, -119, -121, -113, -151, -103, -168, -124, -153, -165, 
77, 122, 145, 96, 8, -20, -23, -42, 14, 10, -24, -54, -45, 3, 5, 41, 
-10, -76, -79, -130, -112, -92, -21, 59, 52, 83, 39, 65, 92, 97, 166, 172, 
132, 46, -91, -101, -69, -20, -63, -19, 10, 60, 76, 139, 158, -23, -34, 78, 
64, 108, 77, 26, -3, -93, -17, -75, -79, -102, -117, -126, -79, -52, -90, -15, 
-14, 10, 9, 66, 34, 26, 7, -30, -10, -32, 31, 61, 73, 98, 102, 155, 
54, -18, -44, -115, -95, -155, -160, -146, -101, -52, 93, 87, 20, -13, 43, 66, 
117, 115, 139, 98, 79, 74, -16, -26, -88, -104, -73, -111, -129, -71, -149, -96, 
-64, -53, 0, 5, -2, -72, -32, -2, 7, -16, 22, 37, 61, 22, 81, 57, 
-34, -26, -47, -73, -81, -63, 45, -26, -29, 4, -35, -31, 47, 51, 42, 77, 
47, 46, 71, 75, 150, 138, 99, 48, -55, -86, -83, -78, -132, -159, -130, -121, 
-80, -119, -51, 172, 124, 107, 105, 71, 91, 72, 19, -28, 42, 127, 123, 61, 
-78, -109, -125, -55, -108, -98, -41, 47, 7, 32, -12, -38, -65, -37, -82, -14, 
100, 58, -38, 89, 109, 30, -80, -80, -93, -135, -81, -69, -61, -76, -80, -55, 
-41, -123, -3, 38, 25, 62, 71, 67, 70, -2, -70, -6, -31, 7, 68, 82, 
75, -87, -117, -96, -104, -121, -44, -29, -17, -83, -110, -122, -148, -72, -45, -34, 
1, -5, 24, 71, -52, -49, -51, -111, -59, -136, -118, -135, -79, -105, -159, -149, 
-156, -184, -150, -15, 83, 67, 8, -33, -68, -124, -110, -32, 39, 37, 63, 92, 
93, 94, 111, 134, 73, 62, 19, -21, -17, -69, -158, -154, -91, -113, -93, -167, 
-141, -122, -71, -123, -50, 78, 32, 53, 28, -5, 132, 257, 142, 63, -148, -105, 
-143, -54, -37, -10, 41, 84, 32, -84, -208, -173, 85, 102, 87, 51, -24, 95, 
151, 206, 142, 64, 92, 120, 34, -25, -6, -69, -59, -80, -58, -132, -95, -119, 
-95, -97, -118, -29, -69, -80, 17, 31, -52, -10, 12, 111, 137, 25, -15, -34, 
-76, -74, -62, -15, 75, 51, 16, 34, -5, 85, 94, 153, 111, 105, 66, 99, 
52, -23, 13, 15, 38, 29, 75, 57, -14, -28, -29, -60, -90, -72, -17, -63, 
-31, -63, -77, -55, -44, -41, 7, -45, 30, 10, -8, 4, -33, -20, -39, -21, 
-15, 41, 66, 41, -91, -114, -106, -77, -69, -109, -127, -114, -78, -5, 6, 23, 
38, 42, -23, -55, 6, -61, -78, -105, -99, -68, -100, -4, 50, -44, -90, -109, 
-130, -131, -73, 11, 3, -26, -13, -35, -64, -79, -62, -33, -56, -115, -47, -42, 
-105, -1, -59, -99, -96, -94, -153, -156, -167, -133, -98, -36, -39, -140, -118, -66, 
-39, -102, -86, -83, -37, -25, -69, -87, -73, -63, -5, 91, 35, -35, 10, -16, 
-90, -61, -103, -62, 18, -9, 17, -13, 14, -33, -42, 46, 46, 21, -26, 1, 
25, 91, 76, -15, -11, -25, -54, -71, -7, 20, -61, -91, -59, -2, 144, 191, 
86, 100, 120, 127, 51, -15, -10, 53, 78, 139, 117, 136, 159, 132, 83, 103, 
126, -9, 1, 10, 5, 112, 8, -115, -78, -45, -40, -63, -80, -60, -3, -40, 
9, 35, 124, 75, 88, 69, 104, -4, -34, 80, 180, 183, 137, 82, -45, -80, 
63, 70, 110, 121, 50, -105, -83, -72, 96, 154, 188, 181, 42, 204, 232, 128, 
72, -43, 31, -18, -49, -87, 8, 96, 164, 34, -57, -99, -107, -99, -136, -42, 
5, -13, -64, 0, -7, 2, 78, 39, 75, 92, 59, 77, 56, 38, 7, 22, 
117, 188, 116, 150, 101, 35, 6, 24, 144, 157, 112, 101, 84, 60, -15, -102, 
-122, -81, -176, -181, -163, -140, -67, -105, -54, -43, -116, -131, -193, -173, -166, -74, 
72, 150, 115, 54, 44, 85, 82, 114, 128, 107, 34, 94, 104, 62, 29, -23, 
9, 34, 103, 121, 116, 104, 121, 79, 81, 51, 49, 47, -25, 2, -58, -99, 
-144, -116, -110, -141, -46, -97, -98, 71, 127, 132, 141, 44, 43, 111, 201, 199, 
162, 168, 126, 146, 124, 147, 151, 154, 104, 75, 100, 165, 165, 166, 94, 80, 
40, 45, 42, 28, 64, 50, 33, -38, -138, -88, -27, -36, -51, -52, -112, -91, 
-87, -116, -88, -32, 7, 70, 40, -5, -9, 74, 18, 54, 2, -8, 13, 62, 
77, 137, 98, 99, 94, 55, 60, 124, 120, 43, 70, 2, 54, 14, -52, -65, 
3, 37, 57, 36, 60, -35, -66, -53, -78, -35, -60, -13, -31, -29, -76, -110, 
-61, -88, -61, -69, -108, -79, -73, -78, -60, -60, -113, -112, -86, -101, -63, -82, 
-63, -107, -62, -93, -128, -86, -78, -59, -104, -115, -108, -42, -60, -71, -73, -90, 
-85, -113, -89, -103, -124, -115, -71, -92, -73, -40, -58, -88, -86, -66, -50, -70, 
-47, -85, -31, -60, -60, -50, -83, -78, -92, -63, -98, -122, -86, -74, -105, -120, 
-84, -60, -114, -85, -98, -82, -52, -59, -77, -54, -69, -44, -80, -57, -59, -98, 
-54, -53, -119, -108, -101, -91, -63, -99, -69, -64, -83, -102, -44, -108, -111, -72, 
-97, -77, -93, -61, -56, -98, -104, -65, -50, -71, -57, -78, -106, -113, -119, -119, 
-77, -86, -64, -95, -78, -97, -105, -67, -93, -81, -98, -61, -100, -33, -88, -88, 
-26, -4, 0, -1, -4, -29, 16, -50, -3, -45, -55, 0, -22, 32, 40, -6, 
-17, 5, 36, -24, 14, 41, 42, -25, 0, -30, -52, -39, -49, -82, -81, -18, 
-35, -21, -39, 21, 0, 69, 42, 18, 41, -32, 15, -10, -30, -14, 12, 30, 
3, -15, -30, -7, -23, -45, -38, -5, 0, 2, 2, -9, -7, -58, -62, -1, 
21, -13, -38, -11, 40, -19, 0, -17, -62, -14, -17, -65, 10, 2, -47, 1, 
-31, 10, -8, -20, -25, -17, -17, 50, -18, -13, -37, -5, -18, -19, -1, -32, 
18, -14, -28, -37, -17, -13, -55, -27, -28, -11, 0, -80, -25, -30, -6, -67, 
-65, -20, 14, 0, -25, -30, -53, -36, -51, -11, -7, -30, -16, -31, -68, -73, 
2, 9, -11, 6, 49, 9, -4, 16, -6, -29, -33, -58, -1, 38, 26, 46, 
47, 34, 26, 53, 7, 10, 39, -16, -23, -31, -51, -22, 16, 10, 5, 27, 
-4, -34, 6, -36, -3, -3, 10, -14, 22, 16, -3, 47, 58, 0, -38, -21, 
-20, -37, 7, -30, 28, -2, 5, -28, -50, -16, -16, 30, 51, 8, -5, 11, 
79, 69, 76, -9, 34, 41, 23, 45, -8, -7, -12, -32, 12, 33, 22, 27, 
-55, -47, -28, -38, -33, 8, -33, -44, -15, -4, 41, 52, 18, 47, 68, 47, 
7, -26, -6, 13, -2, -20, -22, 38, -22, -14, 27, 66, -9, 30, -4, 16, 
25, -44, -17, -31, -34, 37, 58, 34, 8, 28, 35, 32, -29, 30, 4, -12, 
97, 322, 424, 150, -93, 181, 386, 388, 364, 37, -201, -548, -806, -539, -385, -212, 
39, -92, 6, 37, 49, 127, -70, -190, -147, -189, -157, -161, 24, 100, 91, 402, 
251, 42, -31, -201, -91, 31, -30, -61, -142, -208, -279, -325, -359, -406, -302, -183, 
67, 252, 279, 405, 456, 328, 481, 519, 492, 527, 449, 300, 56, -178, -341, -516, 
-641, -610, -511, -309, -254, -133, -71, -442, -547, -396, -430, -396, -312, -93, 79, 129, 
126, 295, 391, 337, 464, 425, 436, 371, 195, 134, -6, -217, -264, -238, -238, -240, 
-443, -572, -94, 212, 195, 175, 132, 121, 187, 213, 298, 303, 96, 7, 44, -9, 
97, -25, -431, -446, -461, -527, -429, -169, -119, -173, -319, 8, 330, 222, -99, -39, 
399, 307, 53, -148, -233, -257, -193, -95, -99, -56, 113, 188, 42, -367, -351, 36, 
180, 245, 199, 52, -256, -105, 263, 221, 121, 300, 356, 165, 42, 122, 56, -220, 
-280, -71, 159, 206, 249, 410, 452, 446, 333, 201, 524, 639, 295, 173, 126, 136, 
-4, -177, 71, -127, -264, -267, -482, -253, -188, -183, -68, -41, 40, 59, -278, -198, 
178, 194, 129, 382, 542, 432, 338, 410, 197, 61, -15, -253, -576, -507, -282, 8, 
344, 376, 121, -67, -372, -392, -215, -47, 38, 52, 162, 243, 207, 67, -161, -284, 
-181, -250, -387, -193, -144, -77, -195, -473, -519, -430, 85, 145, -201, -69, 88, 99, 
-3, -259, -9, -38, -183, 28, 93, -196, -251, -124, -19, -327, -503, -487, -692, -732, 
232, 37, -290, -257, 94, -15, -217, -348, -434, -435, -395, -460, -542, -487, -327, -177, 
-154, -214, -181, -232, -415, -379, -309, -298, -232, -142, 22, 91, 71, 193, 142, 49, 
-174, -191, -2, -90, -402, -688, -856, -670, -387, -154, -225, -172, -220, -322, -250, -128, 
-116, -67, 189, 209, 143, 123, 194, 356, 420, 196, 326, 304, 106, 8, -301, -402, 
-321, -268, 59, 262, 380, 401, 54, -27, 97, -75, -83, 116, 120, 180, 268, 18, 
-245, -314, -294, -98, 240, 582, 481, -116, -135, -41, -212, -186, -251, -44, 82, -280, 
-429, -387, -202, -95, -300, -512, -591, -535, -443, -546, -483, -228, -163, -175, -133, 56, 
137, 45, 158, 262, 255, 148, 162, 354, 285, 316, 510, 83, -368, -285, -60, 216, 
364, 221, 123, 67, 118, 47, 229, 434, 391, 196, 28, -95, -81, 66, 42, 42, 
88, 144, 240, 246, 155, 98, 90, -30, -84, -37, -19, -122, -227, -218, -100, -61, 
-50, 15, 20, -159, -217, -283, -343, -232, -221, -200, -205, -334, -377, -388, -309, -373, 
-412, -252, -226, -115, -198, -507, -528, -394, -251, -323, -313, -246, -293, -363, -290, -308, 
-481, -535, -386, -92, -108, -143, -95, -210, -544, -654, -595, -648, -653, -448, -177, -301, 
-450, -569, -649, -503, -158, -85, -123, -164, -113, -162, -317, -403, -465, -304, 11, 31, 
23, -1, 60, 53, -86, -215, -199, -147, -174, -102, -24, 17, -25, -191, -311, -117, 
36, 120, 219, 411, 494, 317, 212, 190, 83, 31, -65, -40, -88, -144, -115, 136, 
-389, -537, -195, 232, 37, -62, -88, -131, -30, -82, -212, -60, -38, 114, 236, 250, 
419, 517, 205, -4, 103, 402, 337, 201, 272, 287, 262, 383, 427, 365, 285, 233, 
7, 228, 424, 121, 131, 26, -127, 146, 178, 197, 243, -41, -184, -52, 171, 144, 
-191, -620, -545, -162, 61, 171, -105, -359, -141, -60, -207, -102, -216, -247, -110, 74, 
481, 723, 582, 304, 245, 240, 181, 93, -3, -141, -293, -282, -235, -166, -188, -85, 
249, 169, 84, 147, -90, -97, -67, -274, 89, 207, 60, -17, -208, -298, -212, -124, 
2, -109, -64, 41, 42, -152, -47, 19, -389, -347, 52, -183, -255, -24, 195, 254, 
-1, 98, 86, -40, -55, -164, -87, 163, 317, 219, -84, 82, 285, 375, 391, -104, 
-182, 89, 84, 36, 61, 52, -102, -256, -454, -350, -66, 241, 406, 101, -242, -88, 
205, 86, 161, 287, 268, 132, 31, -27, 75, 252, 393, 378, 500, 444, 552, 578, 
450, 419, 341, 348, 484, 459, 508, 442, 308, 332, 334, 380, 478, 418, 358, 183, 
-8, -89, 72, 152, 197, 182, 34, -100, 12, -1, -197, -122, -38, -2, 301, 257, 
163, 63, 113, 163, 174, 122, 164, 108, 199, 182, 96, 217, 325, 263, 321, 372, 
451, 429, 646, 554, 168, 84, 315, 282, 268, 114, 106, 262, 178, 94, -95, -48, 
95, 27, -159, -91, -133, -189, -162, -192, -85, -235, -356, -393, -370, -384, -439, -502, 
-372, -254, -103, 3, -92, -203, -89, 90, -89, -311, -312, -175, -287, -409, -622, -693, 
-16, 69, 83, 56, 12, 59, 48, 70, 31, 23, -16, -112, -136, -80, -35, -27, 
-11, -16, -17, -15, 24, 54, 20, -18, -13, -74, -24, -2, 14, -20, 29, 63, 
17, 26, -6, -32, -28, 9, -26, -45, -50, -26, -37, -90, -83, -52, -24, -21, 
18, 21, 31, 63, 50, 35, 80, 84, 64, 62, 50, 34, 18, -19, -90, -106, 
-110, -136, -92, -72, -37, -32, -46, -54, -107, -89, -105, -57, -25, -15, -15, -14, 
17, 5, 61, 30, 59, 31, 27, 41, 24, -27, -37, -39, -43, -71, -29, -46, 
-58, -97, 12, -10, -8, -29, 5, -23, 12, 4, 14, 10, -25, 0, 23, 3, 
-37, 5, -57, -49, -104, -104, -64, -31, -27, -25, -56, 21, 30, 42, -6, -11, 
58, -25, -176, -262, -378, -363, -353, -287, -335, -261, -210, -241, -244, -476, -468, -307, 
-216, -183, -191, -243, -410, -358, -174, -209, -182, -169, -145, -242, -322, -252, -274, -371, 
-384, -323, -227, -222, -227, -138, -114, -81, -171, -189, -103, 8, -138, -204, -210, -227, 
-302, -366, -243, -321, -435, -426, -544, -447, -344, -405, -291, -298, -283, -262, -418, -370, 
-230, -186, -241, -103, -47, -131, -127, -89, -181, -216, -306, -374, -556, -526, -424, -244, 
-96, -47, -192, -313, -408, -473, -335, -266, -296, -214, -195, -133, -188, -268, -356, -377, 
-303, -386, -445, -348, -323, -251, -355, -477, -484, -409, -256, -186, -366, -292, -265, -217, 
-267, -353, -261, -284, -368, -268, -197, -367, -396, -339, -272, -432, -489, -541, -590, -608, 
274, 196, 31, 61, 171, 153, 46, 30, -29, -35, -5, -28, -41, -105, -18, 47, 
66, -9, 8, -40, -60, -39, -74, -76, -26, -30, 96, 120, 74, 141, 129, 111, 
53, 24, 101, 85, -41, -149, -242, -179, -1, 8, 67, 32, 22, -77, -58, 7, 
7, 38, 160, 176, 137, 140, 120, 224, 239, 191, 240, 221, 153, 37, -52, -95, 
-60, -17, 84, 143, 164, 171, 91, 67, 125, 9, 27, 86, 116, 57, 88, -14, 
-110, -140, -122, -40, 152, 274, 205, -31, -17, 39, -54, -41, -62, -11, 71, -57, 
-128, -155, -30, 34, -100, -184, -260, -175, -151, -224, -138, -39, -52, -2, -51, 96, 
135, 95, 128, 158, 111, 117, 93, 180, 189, 196, 283, 51, -153, -49, 42, 127, 
434, 314, 92, -65, -48, -116, 11, 67, -126, -160, -38, -19, 130, 147, 26, 161, 
208, 130, 231, 315, 361, 278, 282, 327, 501, 661, 433, 189, 197, 123, 227, 97, 
-4, 219, 89, -4, 41, 97, 146, -31, -81, -316, -409, -193, -460, -526, -410, -334, 
-76, 153, 257, 253, 260, 364, 294, 299, 303, 272, 352, 180, 168, 38, -15, 9, 
-97, -190, -237, -328, -358, -425, -326, -156, -166, -226, -177, 144, 628, 921, 858, 716, 
548, 297, 85, 59, -69, -30, 226, 72, -110, 31, -61, 154, 250, 237, 310, 7, 
-275, -497, -805, -981, -841, -563, -306, -107, 117, 59, -53, 41, 355, 520, 596, 466, 
166, 79, 98, 57, 92, -183, -536, -432, -403, -240, -149, -190, -222, -145, -29, 123, 
835, 796, 445, 324, 344, 146, -11, -308, -426, -432, -525, -465, -217, -183, -397, -565, 
-572, -420, -521, -767, -766, -697, -676, -398, -33, 106, 347, 713, 673, 380, 354, 275, 
274, 426, 278, 450, 693, 544, 404, 422, 631, 665, 220, -198, -277, -243, -56, 254, 
254, 66, 20, 231, 248, 84, 221, 395, 547, 549, 64, -237, -139, -38, 162, 322, 
462, 386, -26, -231, -501, -512, -500, -614, -658, -665, -925, -1133, -1006, -783, -356, -240, 
-467, -583, -527, -486, -181, 38, 100, 395, 583, 721, 745, 535, 512, 462, 268, 336, 
427, 782, 995, 711, 350, 218, 151, 179, 65, 37, -256, -666, -425, -320, -400, -123, 
45, 130, 393, 512, 298, 216, 260, 340, 599, 466, 235, 126, -326, -481, -440, -508, 
168, 193, 336, 382, 234, 288, 174, -39, -26, 162, 413, 510, 445, 429, 383, 232, 
377, 305, 37, 193, 293, 216, 316, 263, 39, -94, 24, 150, 83, -180, 41, 333, 
284, 397, 296, -141, 82, 198, 176, 60, -2, 169, 250, -1, 22, 11, -282, -248, 
-190, -101, -23, -211, -445, -378, -329, -235, -128, -81, 212, 363, 227, 437, 484, 560, 
913, 831, 690, 572, 406, 671, 605, 405, 298, -106, -431, -698, -545, -117, -155, -437, 
-627, -508, -331, -195, -114, -178, -108, 9, -41, -36, -32, -79, -11, 17, 113, 467, 
448, 652, 923, 516, -159, -570, -581, -477, -361, -393, -384, -324, -289, -331, -344, -461, 
-329, -65, 89, -55, -40, 657, 873, 936, 976, 593, 494, 480, 313, 136, 108, 445, 
-53, 17, -3, -43, -124, -161, -279, -203, -37, 88, 83, 22, 1, 78, 54, -121, 
-277, -203, -248, -144, -66, 3, 124, 378, 331, 153, 62, -142, -381, -390, -299, -176, 
-169, -42, 48, 158, 213, 197, 193, 224, 95, 59, 99, 355, 473, 486, 366, 156, 
93, 219, 275, 219, -48, -258, -398, -416, -253, -197, -281, -120, -6, 0, -12, -187, 
-396, -570, -581, -462, -362, -236, -265, -289, -295, -241, -55, 119, 99, 248, 246, 1, 
-78, 11, 30, 121, 168, -76, -144, -171, -266, -339, -355, -248, -25, 139, 431, 563, 
499, 447, 460, 402, 368, 293, 141, -14, -136, -297, -238, 60, 314, 200, 111, 71, 
83, 217, 315, 306, 206, 182, 48, -116, -194, -344, -386, -510, -534, -477, -442, -270, 
318, 240, -9, -119, -307, -417, -266, -150, 42, 224, -238, -407, 105, 349, 600, 590, 
202, -7, 74, 271, 429, 425, 404, 93, -275, -208, -253, -335, -550, -621, -530, -566, 
-354, 6, -4, 103, 184, 16, -82, 34, 216, 156, 190, 424, 488, 404, 125, -52, 
-72, -21, -115, -179, -18, 316, 472, 520, 432, 261, 218, 96, -47, -146, -52, 267, 
113, -170, -696, -1002, -1003, -585, 22, 252, 163, 31, 18, 372, 696, 741, 751, 499, 
521, 645, 551, 135, -309, -708, -694, -581, -588, -659, -751, -627, -492, -267, -2, 249, 
545, 624, 430, 232, -85, -267, -285, -194, 72, 91, -17, 54, -118, -247, -295, -292, 
-241, -213, -228, 90, 460, 580, 273, -159, -308, -239, -115, -270, -388, -394, -452, -338, 
23, 36, 187, 312, 323, 282, 376, 475, 488, 257, -54, -240, -179, -44, -29, -191, 
-163, -156, -224, -302, -217, -32, 230, 277, 382, 485, 517, 545, 500, 355, 218, 10, 
-3, 12, 116, 177, 291, 410, 436, 216, -5, 73, 230, 219, -14, -3, 14, -189, 
-497, -815, -931, -883, -1002, -903, -604, -354, -111, -25, 30, 360, 557, 582, 661, 448, 
166, 105, -135, -338, -415, -533, -670, -771, -575, -225, -43, -90, -349, -371, -167, -39, 
55, 167, 507, 529, 395, 299, 147, 209, 198, -34, -163, -113, 119, 220, 355, 349, 
282, 352, 319, 357, 450, 227, -27, -443, -782, -772, -943, -1099, -1009, -852, -718, -423, 
-131, -6, 105, 239, 342, 482, 464, 551, 487, 380, 89, -193, -426, -523, -532, -481, 
26, 14, -57, -48, -35, -77, -75, -73, -99, -157, -125, -70, -65, -87, -134, -77, 
-23, -34, -51, 11, -14, 2, -52, 11, 61, 68, -9, -40, -71, -45, -5, -72, 
-86, 8, -87, -41, -66, -63, -49, -48, -64, -165, -153, -140, -111, -119, -160, -141, 
-55, -47, -31, -25, -7, 34, 23, 12, -47, -42, 22, -7, -4, -29, -33, -94, 
-117, -80, -123, -168, -146, -131, -131, -49, -113, -142, -84, -40, 51, 100, 145, 112, 
95, 60, -65, -85, -50, -69, -31, -27, -92, -38, -29, -1, 5, -24, -14, -35, 
-119, -92, -184, -178, -154, -127, -113, -77, -41, -27, -87, -61, 13, 27, 85, 34, 
-2, -45, -33, -42, -32, -64, -148, -106, -79, -54, -84, -61, -63, -90, -35, 25, 
283, 272, 107, 77, 61, -41, -56, -192, -226, -222, -328, -266, -162, -117, -206, -265, 
-313, -248, -295, -434, -355, -348, -325, -232, -12, 2, 133, 265, 287, 150, 179, 85, 
155, 203, 127, 113, 260, 260, 222, 195, 286, 304, 52, -88, -191, -153, -40, 149, 
135, 2, 12, 100, 125, 34, 102, 176, 276, 272, 16, -109, -108, 5, 125, 170, 
279, 184, 42, -79, -180, -240, -205, -268, -273, -265, -337, -405, -419, -292, -155, -34, 
-199, -300, -289, -230, -84, 22, 84, 158, 234, 337, 360, 252, 253, 190, 62, 116, 
254, 463, 652, 463, 245, 97, 138, 99, 121, 58, -102, -264, -212, -164, -145, -50, 
33, 90, 186, 233, 90, 72, 134, 154, 297, 245, 135, 45, -156, -231, -189, -263, 
-120, -76, -39, -58, -85, -95, -97, -177, -168, -64, 41, 139, 63, 104, 22, -32, 
73, -25, -177, -103, -17, -34, -12, 6, -124, -144, -128, -61, -104, -159, -97, -14, 
-57, -1, -4, -145, -78, -25, -4, -75, -75, -16, 19, -84, -77, -124, -150, -232, 
-195, -133, -29, -126, -251, -217, -230, -247, -136, -119, -34, 2, -46, 49, 91, 127, 
357, 303, 252, 156, 142, 255, 184, 114, 19, -139, -267, -411, -324, -191, -119, -264, 
-345, -292, -171, -116, -78, -99, -52, -22, -60, -48, -38, -92, -101, -99, -25, 96, 
108, 194, 250, 121, -98, -252, -312, -258, -182, -232, -200, -198, -148, -188, -188, -235, 
-198, -84, -37, -128, -58, 173, 240, 241, 305, 129, 96, 165, 48, -60, -110, 41, 
};

// Layer 0 Biases
const int16_t weights_1[] = {
-70, -13, -70, -196, -85, 67, -44, -8, -134, 119, -20, 105, 98, -86, 3, -115, };

// Layer 1 Weights ((8, 16))
const int16_t weights_2[] = {
-66, 85, -111, 27, 90, -329, 22, 116, 1, 13, -193, -441, -255, -121, -333, -384, 
-239, 50, -39, 434, -251, -256, -399, -28, 580, 185, -7, -800, -251, -127, 140, 35, 
-174, -210, -557, -264, -44, -293, -38, 297, -144, 132, -47, -300, -153, 73, -41, -60, 
-457, 369, -79, -17, 54, 242, 26, 259, -303, -286, -627, -400, -343, 145, 117, -376, 
-311, 168, 99, -90, -112, -153, -274, 255, -135, 66, -276, -59, -119, 36, -191, 520, 
96, -188, -94, -43, -183, -196, 24, -27, -7, -129, 98, -74, -173, 7, -150, 5, 
270, -186, -493, -128, 60, 199, 332, -198, 87, 171, 596, 316, 730, 327, -296, -27, 
-95, -54, -14, -9, 42, -226, -270, -430, 245, -543, 47, -5, -56, -51, 48, -211, 
};

// Layer 1 Biases
const int16_t weights_3[] = {
-18, -1808, 586, -83, -821, -51, 252, 923, };

// Layer 2 Weights ((6, 8))
const int16_t weights_4[] = {
22, -72, -465, 0, 218, 121, -383, 401, 159, 246, -205, 204, 146, 186, -49, 170, 
103, 354, 66, -297, 108, 112, -395, 216, 127, -229, 211, -53, -598, 227, 247, -432, 
-45, -606, 357, -3, -761, 102, -25, -544, -641, -595, -957, -720, -425, 16, 387, -524, 
};

// Layer 2 Biases
const int16_t weights_5[] = {
1569, -1396, -1185, 72, 514, 310, };

// Temporary buffers
number_t layer1_out[16]; 
number_t layer2_out[8];

void cnn(number_t* input, number_t* output) {
    // --- LAYER 1: Dense 16 ---
    for (int i = 0; i < 16; i++) { 
        long_number_t acc = 0; 
        for (int j = 0; j < 1152; j++) { 
            acc += (long_number_t)input[j] * weights_0[i * 1152 + j];
        }
        acc = acc >> FIXED_POINT;
        acc += weights_1[i];
        layer1_out[i] = activation_relu(clamp_to_number_t(acc));
    }

    // --- LAYER 2: Dense 8 ---
    for (int i = 0; i < 8; i++) { 
        long_number_t acc = 0;
        for (int j = 0; j < 16; j++) { 
            acc += (long_number_t)layer1_out[j] * weights_2[i * 16 + j];
        }
        acc = acc >> FIXED_POINT;
        acc += weights_3[i];
        layer2_out[i] = activation_relu(clamp_to_number_t(acc));
    }

    // --- LAYER 3: Dense 6 (Output) ---
    for (int i = 0; i < 6; i++) { 
        long_number_t acc = 0;
        for (int j = 0; j < 8; j++) { 
            acc += (long_number_t)layer2_out[j] * weights_4[i * 8 + j];
        }
        acc = acc >> FIXED_POINT;
        acc += weights_5[i];
        output[i] = clamp_to_number_t(acc);
    }
}
#endif
